tree
version=v4
num_class=1
num_tree_per_iteration=1
label_index=0
max_feature_idx=3
objective=binary sigmoid:1
feature_names=InscClaimAmtReimbursed_in DeductibleAmtPaid_in InscClaimAmtReimbursed_out DeductibleAmtPaid_out
feature_infos=[0:5580870] [0:536136] [0:2321890] [0:22790]
tree_sizes=657 666 663 967 769 666 765 764 668 663 668 770 767 768 766 769 768 771 760 769 767 764 876 668 768 774 772 771 868 770 873 877 675 872 857 773 940 877 880 775 951 754 858 675 854 877 677 655 658 870 675 677 677 655 657 881 837 988 677 637 679 878 881 680 577 986 757 672 987 671 671 983 864 675 673 887 674 859 868 685 974 682 981 886 678 889 984 885 683 885 875 650 650 756 672 662 962 878 995 975

Tree=0
num_leaves=5
num_cat=0
split_feature=0 2 0 0
split_gain=12767.3 10885.1 1593.24 53.5969
threshold=37100.000000000007 47670.000000000007 13500.000000000002 135350.00000000003
decision_type=2 2 2 2
left_child=1 2 -1 -2
right_child=3 -3 -4 -5
leaf_value=-2.2072009159628911 -1.2409052388056856 -1.1859816619195502 -1.6254422503909267 -1.0679560229054563
leaf_weight=314.07164937257767 420.53967727720737 328.69486297667027 72.950082153081894 1798.4008697271347
leaf_count=3185 747 414 341 723
internal_value=-1.23477 -1.66728 -2.08791 -1.09755
internal_weight=2934.66 715.717 387.022 2218.94
internal_count=5410 3940 3526 1470
is_linear=0
shrinkage=1


Tree=1
num_leaves=5
num_cat=0
split_feature=1 2 2 3
split_gain=984.847 2379.33 234.842 86.7221
threshold=2670.0000000000005 37670.000000000007 6605.0000000000009 1285.0000000000002
decision_type=2 2 2 2
left_child=1 2 -1 -3
right_child=-2 3 -4 -5
leaf_value=-0.022673686761477897 0.43610138231876922 0.3305320319127546 0.1621862529885516 0.46369181886546057
leaf_weight=194.72443887591362 4984.7426875382662 206.47249020636082 157.66237460076809 501.16654242575169
leaf_count=1893 1696 376 1302 143
internal_value=0.413993 0.307672 0.0602183 0.428684
internal_weight=6044.77 1060.03 352.387 707.639
internal_count=5410 3714 3195 519
is_linear=0
shrinkage=0.115165


Tree=2
num_leaves=5
num_cat=0
split_feature=0 2 3 3
split_gain=531.772 930.088 183.235 40.5808
threshold=52150.000000000007 47670.000000000007 315.00000000000006 475.00000000000006
decision_type=2 2 2 2
left_child=1 2 -1 -3
right_child=-2 3 -4 -5
leaf_value=0.14186927387798426 0.32013782196226781 0.14018561815188596 -0.10572670896124278 0.31951467339871775
leaf_weight=569.93617454916239 5691.804386138916 40.116148963570595 36.121149204671383 866.55885589122772
leaf_count=3367 1302 76 311 354
internal_value=0.303389 0.239024 0.125477 0.313069
internal_weight=7204.54 1512.73 606.057 906.675
internal_count=5410 4108 3678 430
is_linear=0
shrinkage=0.115165


Tree=3
num_leaves=8
num_cat=0
split_feature=1 2 2 2 0 0 0
split_gain=430.772 1012.87 154.253 38.9366 20.496 35.535 1.77631
threshold=2670.0000000000005 37670.000000000007 6605.0000000000009 153900.00000000003 19100.000000000004 17500.000000000004 226650.00000000003
decision_type=2 2 2 2 2 2 2
left_child=1 2 -1 -3 5 -2 -6
right_child=4 3 -4 -5 6 -7 -8
leaf_value=-0.034528880498547118 -0.055766786959029008 0.19980194985323488 0.10422550481112353 0.27226120144244403 0.24595266261388937 0.17015750969709756 0.26711395654162212
leaf_weight=214.40098828822374 7.9052477926015881 316.18015787005424 194.70178324729204 621.94107705354691 2351.1615698188543 16.130604207515717 4082.2071894854307
leaf_count=1893 45 408 1302 111 1172 26 453
internal_value=0.246451 0.184131 0.0310434 0.249784 0.259196 0.0854271 0.259694
internal_weight=7804.63 1347.22 409.103 938.121 6457.4 24.0359 6433.37
internal_count=5410 3714 3195 519 1696 71 1625
is_linear=0
shrinkage=0.115165


Tree=4
num_leaves=6
num_cat=0
split_feature=0 2 0 3 0
split_gain=354.044 610.347 211.388 135.044 4.59827
threshold=48450.000000000007 8295.0000000000018 19100.000000000004 965.00000000000011 187500.00000000003
decision_type=2 2 2 2 2
left_child=1 2 -1 -3 -2
right_child=4 3 -4 -5 -6
leaf_value=-0.039227668873475376 0.20897773081856211 0.14397234170620699 0.14369597343545412 0.22787091587489014 0.22972295403881382
leaf_weight=228.76042754203081 1857.6900727301836 496.57868372648954 122.66706414520741 823.34528729319572 4515.1693364828825
leaf_count=2089 821 1559 214 202 525
internal_value=0.211198 0.161645 0.0248127 0.197461 0.223955
internal_weight=8044.21 1671.35 351.427 1319.92 6372.86
internal_count=5410 4064 2303 1761 1346
is_linear=0
shrinkage=0.115165


Tree=5
num_leaves=5
num_cat=0
split_feature=0 2 0 3
split_gain=324.172 382.416 340.409 22.5314
threshold=86500.000000000015 37670.000000000007 13500.000000000002 1715.0000000000002
decision_type=2 2 2 2
left_child=1 2 -1 -3
right_child=-2 3 -4 -5
leaf_value=0.0063501544393619403 0.20148148786458905 0.16293683755946434 0.14623196194949675 0.20947972795426356
leaf_weight=385.93139398097992 5803.3780210465193 566.92617374658585 595.63080888986588 703.24765573441982
leaf_count=3064 988 508 744 106
internal_value=0.186667 0.147841 0.0920593 0.189946
internal_weight=8055.11 2251.74 981.562 1270.17
internal_count=5410 4422 3808 614
is_linear=0
shrinkage=0.115165


Tree=6
num_leaves=6
num_cat=0
split_feature=0 2 0 2 0
split_gain=309.621 391.089 173.276 25.7541 11.7441
threshold=66500.000000000015 46805.000000000007 13500.000000000002 204050.00000000003 145500.00000000003
decision_type=2 2 2 2 2
left_child=1 2 -1 -3 -2
right_child=4 3 -4 -5 -6
leaf_value=0.011612791252750391 0.16087848820806563 0.14427927722418779 0.11776166661194623 0.19237930679658383 0.18593213792201496
leaf_weight=415.57750066369772 988.99707262217999 539.57752583920956 417.24720132350922 612.24469703435898 4935.9721632748842
leaf_count=3174 477 389 622 77 671
internal_value=0.168485 0.127484 0.0657904 0.171122 0.181997
internal_weight=7909.62 1984.65 832.825 1151.82 5924.97
internal_count=5410 4262 3796 466 1148
is_linear=0
shrinkage=0.115165


Tree=7
num_leaves=6
num_cat=0
split_feature=0 2 1 3 0
split_gain=303.675 282.774 206.65 27.7288 6.40835
threshold=86500.000000000015 37670.000000000007 1602.0000000000002 1715.0000000000002 226650.00000000003
decision_type=2 2 2 2 2
left_child=1 2 -1 -3 -2
right_child=4 3 -4 -5 -6
leaf_value=0.0036015023772857169 0.15549067139023082 0.12857579829110496 0.11187882641486288 0.17440174525255542 0.17462808099324942
leaf_weight=391.21988648176193 1572.5359508991241 565.72430795431137 609.31429477035999 666.09760956466198 3857.3429918289185
leaf_count=3034 535 508 774 106 453
internal_value=0.154326 0.117216 0.070256 0.154461 0.169351
internal_weight=7662.24 2232.36 1000.53 1231.82 5429.88
internal_count=5410 4422 3808 614 988
is_linear=0
shrinkage=0.115165


Tree=8
num_leaves=5
num_cat=0
split_feature=0 3 0 3
split_gain=305.688 223.882 222.075 52.6986
threshold=130500.00000000001 95.000000000000014 19100.000000000004 1715.0000000000002
decision_type=2 2 2 2
left_child=1 2 -1 -3
right_child=-2 3 -4 -5
leaf_value=-0.027501531466034422 0.16089359994106958 0.11591709453952852 0.099692854070835155 0.16243303922792851
leaf_weight=259.87971317023039 4676.9551789462566 1215.2059284597635 552.3114655315876 649.62971147894859
leaf_count=2176 736 1820 568 110
internal_value=0.142775 0.110657 0.0585672 0.132842
internal_weight=7353.98 2677.03 812.191 1864.84
internal_count=5410 4674 2744 1930
is_linear=0
shrinkage=0.115165


Tree=9
num_leaves=5
num_cat=0
split_feature=0 2 1 3
split_gain=316.45 201.123 188.68 28.0591
threshold=130500.00000000001 36465.000000000007 1602.0000000000002 285.00000000000006
decision_type=2 2 2 2
left_child=1 2 -1 -3
right_child=-2 3 -4 -5
leaf_value=0.00014524152372617094 0.1520643692804127 0.027409612839079091 0.09581224903384708 0.13643343889932197
leaf_weight=398.58364845067263 4395.7795196771622 46.03445890545845 932.73027043044567 1244.7090780884027
leaf_count=3025 736 85 989 575
internal_value=0.132865 0.100227 0.0676281 0.133029
internal_weight=7017.84 2622.06 1331.31 1290.74
internal_count=5410 4674 4014 660
is_linear=0
shrinkage=0.115165


Tree=10
num_leaves=5
num_cat=0
split_feature=0 2 0 3
split_gain=323.037 179.573 151.97 29.5492
threshold=130500.00000000001 36465.000000000007 13500.000000000002 1715.0000000000002
decision_type=2 2 2 2
left_child=1 2 -1 -3
right_child=-2 3 -4 -5
leaf_value=0.00024618863235178643 0.14470264676626945 0.10180404000654374 0.086334807965668586 0.14542856890029579
leaf_weight=399.90887436270714 4105.1310586184263 656.69981506466866 916.9355279058218 580.44775855541229
leaf_count=3056 736 550 958 110
internal_value=0.124416 0.0913646 0.0606422 0.123249
internal_weight=6659.12 2553.99 1316.84 1237.15
internal_count=5410 4674 4014 660
is_linear=0
shrinkage=0.115165


Tree=11
num_leaves=6
num_cat=0
split_feature=0 3 2 3 0
split_gain=328.163 170.829 148.39 72.2034 1.29345
threshold=135350.00000000003 45.000000000000007 8405.0000000000018 1715.0000000000002 226650.00000000003
decision_type=2 2 2 2 2
left_child=1 2 -1 -3 -2
right_child=4 3 -4 -5 -6
leaf_value=0.046167591766241974 0.12268296863852764 0.085141514340733443 -0.16317797844807452 0.13841169554134403 0.14260413091280336
leaf_weight=573.68037738651037 820.64147242903709 1349.8821619078517 41.872368529438972 542.24610836803913 2968.2346854507923
leaf_count=1986 270 2329 262 110 453
internal_value=0.116967 0.0838269 0.0297325 0.101041 0.138613
internal_weight=6296.56 2507.68 615.553 1892.13 3788.88
internal_count=5410 4687 2248 2439 723
is_linear=0
shrinkage=0.115165


Tree=12
num_leaves=6
num_cat=0
split_feature=0 3 1 0 2
split_gain=349.156 203.337 98.3555 25.7573 10.0965
threshold=86500.000000000015 965.00000000000011 2670.0000000000005 226650.00000000003 360095.00000000006
decision_type=2 2 2 2 2
left_child=1 2 -1 -2 -3
right_child=3 4 -4 -5 -6
leaf_value=0.01226417618673876 0.11173493259951067 0.099307463715604671 0.075131696808574275 0.13743572460197992 0.14425014024856939
leaf_weight=690.48412398248911 1216.9634596258402 330.79909740388393 667.52188025414944 2739.0795875787735 316.41954708099365
leaf_count=3521 535 182 688 453 31
internal_value=0.109816 0.0698404 0.0436861 0.129828 0.123112
internal_weight=5961.27 2005.22 1358.01 3956.04 647.219
internal_count=5410 4422 4209 988 213
is_linear=0
shrinkage=0.115165


Tree=13
num_leaves=6
num_cat=0
split_feature=0 2 0 2 0
split_gain=348.926 156.102 128.495 25.6424 4.23223
threshold=135350.00000000003 50580.000000000007 13500.000000000002 360095.00000000006 226650.00000000003
decision_type=2 2 2 2 2
left_child=1 2 -1 -3 -2
right_child=4 3 -4 -5 -6
leaf_value=-0.0030414914701130248 0.11105841694387085 0.089784673718867544 0.068891440110744578 0.13951491245224254 0.1329340940038034
leaf_weight=477.06775886565447 719.92184780538082 634.21790407598019 979.24896109104156 291.19589138031006 2519.0456450432539
leaf_count=3207 270 427 1022 31 453
internal_value=0.103621 0.069456 0.0451198 0.106729 0.128429
internal_weight=5620.7 2381.73 1456.32 925.414 3238.97
internal_count=5410 4687 4229 458 723
is_linear=0
shrinkage=0.115165


Tree=14
num_leaves=6
num_cat=0
split_feature=0 3 0 2 0
split_gain=348.424 141.656 135.002 9.78905 4.9199
threshold=136500.00000000003 965.00000000000011 48450.000000000007 360095.00000000006 229300.00000000003
decision_type=2 2 2 2 2
left_child=1 2 -1 -3 -2
right_child=4 3 -4 -5 -6
leaf_value=0.015519303067005431 0.10634773100061205 0.090634023009493705 0.080741256358035626 0.13545130336038028 0.12903119336634095
leaf_weight=920.27506203949451 669.8590032607317 333.24170748889446 808.22284665703773 267.01645660400391 2293.8650337457657
leaf_count=3862 265 192 612 31 448
internal_value=0.0979063 0.0639071 0.0464466 0.112475 0.124285
internal_weight=5292.48 2328.76 1728.5 600.258 2963.72
internal_count=5410 4697 4474 223 713
is_linear=0
shrinkage=0.115165


Tree=15
num_leaves=6
num_cat=0
split_feature=0 2 1 2 0
split_gain=346.876 132.308 98.6606 28.0365 6.6978
threshold=136500.00000000003 50580.000000000007 2670.0000000000005 360095.00000000006 226650.00000000003
decision_type=2 2 2 2 2
left_child=1 2 -1 -3 -2
right_child=4 3 -4 -5 -6
leaf_value=-0.001566064144690342 0.10101333436464684 0.078106997389604388 0.059941185048370295 0.13191663439832235 0.12535775171177355
leaf_weight=539.90401548147202 609.70589080452919 586.89647369086742 892.64327166974545 244.12470149993896 2114.9371542185545
leaf_count=3338 260 428 900 31 453
internal_value=0.0924645 0.0585145 0.036554 0.0952987 0.120312
internal_weight=4988.21 2263.57 1432.55 831.021 2724.64
internal_count=5410 4697 4238 459 713
is_linear=0
shrinkage=0.115165


Tree=16
num_leaves=6
num_cat=0
split_feature=0 3 0 0 2
split_gain=341.915 127.747 95.0334 10.9664 0.444495
threshold=130500.00000000001 1645.0000000000002 48450.000000000007 229300.00000000003 360095.00000000006
decision_type=2 2 2 2 2
left_child=1 2 -1 -2 -3
right_child=3 4 -4 -5 -6
leaf_value=0.015833391755277485 0.095785145078100445 0.085637392396631831 0.070523784038407422 0.12216796556972771 0.12880145059006801
leaf_weight=1024.3365705162287 622.00520552694798 162.51826857030392 749.20236231386662 1918.6395995020866 222.66093301773071
leaf_count=3955 288 86 602 448 31
internal_value=0.0873498 0.0530404 0.039346 0.11613 0.113354
internal_weight=4699.36 2158.72 1773.54 2540.64 385.179
internal_count=5410 4674 4557 736 117
is_linear=0
shrinkage=0.115165


Tree=17
num_leaves=6
num_cat=0
split_feature=0 3 0 2 0
split_gain=336.498 120.224 68.5718 56.0527 10.3797
threshold=136500.00000000003 95.000000000000014 19100.000000000004 190965.00000000003 255450.00000000003
decision_type=2 2 2 2 2
left_child=1 2 -1 -3 -2
right_child=4 3 -4 -5 -6
leaf_value=-0.034035257883581749 0.094378359863606931 0.05513182523894572 0.037382641578505675 0.11319265661571047 0.12008594556001766
leaf_weight=270.91582389175892 665.85406790673733 1077.78558832407 480.13822817802429 313.43235996365547 1630.8960995972157
leaf_count=2176 310 1851 579 91 403
internal_value=0.0823413 0.0489327 0.0109824 0.0689702 0.113097
internal_weight=4439.02 2142.27 751.054 1391.22 2296.75
internal_count=5410 4697 2755 1942 713
is_linear=0
shrinkage=0.115165


Tree=18
num_leaves=6
num_cat=0
split_feature=0 3 2 3 0
split_gain=328.566 113.489 108.625 61.832 13.2436
threshold=135350.00000000003 45.000000000000007 8405.0000000000018 1715.0000000000002 226650.00000000003
decision_type=2 2 2 2 2
left_child=1 2 -1 -3 -2
right_child=4 3 -4 -5 -6
leaf_value=0.014740775953319961 0.086536917328011317 0.047563648217542276 -0.17255808512121198 0.1066615679905196 0.116151685516703
leaf_weight=527.41928055137396 512.97684185951948 1186.383464589715 38.227390930056572 320.27404913306236 1610.5786412581801
leaf_count=1986 270 2329 262 110 453
internal_value=0.0775259 0.0443465 0 0.0608012 0.109476
internal_weight=4195.86 2072.3 565.647 1506.66 2123.56
internal_count=5410 4687 2248 2439 723
is_linear=0
shrinkage=0.115165


Tree=19
num_leaves=6
num_cat=0
split_feature=0 3 0 2 0
split_gain=321.406 102.831 88.8133 15.8978 14.1879
threshold=136500.00000000003 965.00000000000011 48450.000000000007 360095.00000000006 515500.00000000006
decision_type=2 2 2 2 2
left_child=1 2 -1 -3 -2
right_child=4 3 -4 -5 -6
leaf_value=0.002222142005947495 0.094397137817893439 0.065610437298050744 0.057176580536343329 0.1217387541778825 0.12156022914870462
leaf_weight=916.10454920679331 1118.7748231589794 263.63624607771635 696.77640219777822 171.21585750579834 815.66232681274414
leaf_count=3862 523 192 612 31 190
internal_value=0.0726688 0.0403394 0.026359 0.0901038 0.106428
internal_weight=3982.17 2047.73 1612.88 434.852 1934.44
internal_count=5410 4697 4474 223 713
is_linear=0
shrinkage=0.115165


Tree=20
num_leaves=6
num_cat=0
split_feature=0 3 0 0 2
split_gain=306.57 94.1375 71.0605 16.4155 5.90182
threshold=136500.00000000003 1645.0000000000002 48450.000000000007 255450.00000000003 360095.00000000006
decision_type=2 2 2 2 2
left_child=1 2 -1 -2 -3
right_child=3 4 -4 -5 -6
leaf_value=0.0060504819458305466 0.080751664431303147 0.064758696720734435 0.054190292573071348 0.11212361820393897 0.11955995884454544
leaf_weight=1013.6679910495877 538.39147222042084 127.67091468721628 702.54568614065647 1238.2513769567013 155.3158597946167
leaf_count=3955 310 86 625 403 31
internal_value=0.0682831 0.0368339 0.026133 0.103176 0.0982667
internal_weight=3775.84 1999.2 1716.21 1776.64 282.987
internal_count=5410 4697 4580 713 117
is_linear=0
shrinkage=0.115165


Tree=21
num_leaves=6
num_cat=0
split_feature=0 3 3 3 0
split_gain=291.461 89.1595 64.9502 15.3978 15.148
threshold=145500.00000000003 965.00000000000011 835.00000000000011 3210.0000000000005 515500.00000000006
decision_type=2 2 2 2 2
left_child=1 2 -1 -3 -2
right_child=4 3 -4 -5 -6
leaf_value=0.024337167148299671 0.087648646755485046 0.058732140216465417 -0.21528731784620328 0.11577303109451219 0.11774471089246419
leaf_weight=1611.1525936499238 901.17295786738396 242.99063233286142 8.5966179445385915 154.19050813466311 672.61542987823486
leaf_count=4468 481 189 45 37 190
internal_value=0.0639829 0.0345057 0.0219755 0.0834 0.1012
internal_weight=3590.72 2016.93 1619.75 397.181 1573.79
internal_count=5410 4739 4513 226 671
is_linear=0
shrinkage=0.115165


Tree=22
num_leaves=7
num_cat=0
split_feature=0 3 2 2 0 0
split_gain=279.071 87.5774 89.5576 75.1313 20.8366 0.704427
threshold=135350.00000000003 45.000000000000007 8405.0000000000018 445.00000000000006 226650.00000000003 515500.00000000006
decision_type=2 2 2 2 2 2
left_child=1 2 -1 -3 -2 -6
right_child=4 3 -4 -5 5 -7
leaf_value=0.00415166161152619 0.068100368067368258 0.29742662333730635 -0.16955855268392389 0.041919258542860993 0.091392731015770709 0.11591425291142426
leaf_weight=514.36925686895847 395.20344866067171 9.9866989031434041 36.05177603662014 1356.9481317847967 513.97538463771343 608.45464205741882
leaf_count=1986 270 32 262 2407 263 190
internal_value=0.0595227 0.0298377 -0.00822953 0.0454484 0.0964661 0.105638
internal_weight=3434.99 1917.36 550.421 1366.93 1517.63 1122.43
internal_count=5410 4687 2248 2439 723 453
is_linear=0
shrinkage=0.115165


Tree=23
num_leaves=5
num_cat=0
split_feature=0 3 0 0
split_gain=265.739 87.2454 65.056 14.799
threshold=157000.00000000003 2600.0000000000005 66500.000000000015 515500.00000000006
decision_type=2 2 2 2
left_child=1 2 -1 -2
right_child=3 -3 -4 -5
leaf_value=0.0057508441927504464 0.081498993157027147 0.10762054294525292 0.052247795735033908 0.11414004122402709
leaf_weight=1255.8557290285826 726.03439431637526 167.13084547221661 598.26399894803762 550.29643046855927
leaf_count=4212 438 55 515 190
internal_value=0.0552202 0.028788 0.0211114 0.0963977
internal_weight=3297.58 2021.25 1854.12 1276.33
internal_count=5410 4782 4727 628
is_linear=0
shrinkage=0.115165


Tree=24
num_leaves=6
num_cat=0
split_feature=0 2 0 0 3
split_gain=248.449 77.502 71.0771 7.85057 2.60141
threshold=187500.00000000003 190965.00000000003 66500.000000000015 515500.00000000006 3085.0000000000005
decision_type=2 2 2 2 2
left_child=1 2 -1 -2 -3
right_child=3 4 -4 -5 -6
leaf_value=0.0032206499699702958 0.081784479859712156 0.052692782047730188 0.049638865311393984 0.11239723138725299 0.11044668872638125
leaf_weight=1211.7880775928497 544.60762029886246 71.49465324729681 699.63594676554203 497.68900871276855 135.95367026329041
leaf_count=4177 335 53 613 190 42
internal_value=0.0513421 0.0282633 0.0205429 0.0973977 0.0946909
internal_weight=3161.17 2118.87 1911.42 1042.3 207.448
internal_count=5410 4885 4790 525 95
is_linear=0
shrinkage=0.115165


Tree=25
num_leaves=6
num_cat=0
split_feature=0 2 2 0 0
split_gain=230.927 73.9276 47.7338 31.6249 9.03551
threshold=187500.00000000003 36465.000000000007 19180.000000000004 29100.000000000004 535250.00000000012
decision_type=2 2 2 2 2
left_child=1 2 -1 -3 -2
right_child=4 3 -4 -5 -6
leaf_value=0.017729811090651738 0.078637280487186489 0.03352652847581597 -0.045962919625474649 0.085574790443884899 0.1112933070060335
leaf_weight=1168.8517108857632 524.41873649135232 451.89650104939938 171.26005724072456 287.53293814510107 432.95746831595898
leaf_count=3639 345 546 543 157 180
internal_value=0.0476759 0.0257018 0.00909343 0.0548938 0.0944809
internal_weight=3036.92 2079.54 1340.11 739.429 957.376
internal_count=5410 4885 4182 703 525
is_linear=0
shrinkage=0.115165


Tree=26
num_leaves=6
num_cat=0
split_feature=0 3 1 0 1
split_gain=214.613 70.0275 59.2909 10.1797 1.30446
threshold=187500.00000000003 3085.0000000000005 2670.0000000000005 515500.00000000006 47526.000000000007
decision_type=2 2 2 2 2
left_child=1 2 -1 4 -2
right_child=3 -3 -4 -5 -6
leaf_value=-0.0046784006504724841 0.076965163720719224 0.10743020969741733 0.035431960322375895 0.10892981985292839 0.019491118362473969
leaf_weight=859.51385245472193 441.97338199615479 118.81600173562765 1073.8846453204751 407.59922069311142 31.313485834747553
leaf_count=3679 302 42 1164 190 33
internal_value=0.0439779 0.0231523 0.0174202 0.0915029 0.0743675
internal_weight=2933.1 2052.21 1933.4 880.886 473.287
internal_count=5410 4885 4843 525 335
is_linear=0
shrinkage=0.115165


Tree=27
num_leaves=6
num_cat=0
split_feature=0 2 0 2 0
split_gain=198.764 66.7143 63.1657 6.55343 5.17617
threshold=226650.00000000003 153900.00000000003 66500.000000000015 360095.00000000006 535250.00000000012
decision_type=2 2 2 2 2
left_child=1 2 -1 -3 -2
right_child=4 3 -4 -5 -6
leaf_value=-0.0016196187970514571 0.075015070748900944 0.052034132274819143 0.041344837314818701 0.10999729841319247 0.10790493992051345
leaf_weight=1156.2107285112143 374.95399354398251 126.59162144362926 721.70896214991808 96.6557936668396 354.48388196527958
leaf_count=4141 273 101 682 33 180
internal_value=0.0406321 0.0222454 0.0147455 0.0813281 0.0923681
internal_weight=2830.6 2101.17 1877.92 223.247 729.438
internal_count=5410 4957 4823 134 453
is_linear=0
shrinkage=0.115165


Tree=28
num_leaves=7
num_cat=0
split_feature=0 2 0 2 0 1
split_gain=181.739 59.2528 51.9148 7.01325 6.04943 0.35932
threshold=226650.00000000003 153900.00000000003 48450.000000000007 360095.00000000006 535250.00000000012 42186.000000000007
decision_type=2 2 2 2 2 2
left_child=1 2 -1 -3 5 -2
right_child=4 3 -4 -5 -6 -7
leaf_value=-0.00422202958409217 0.077887835515926485 0.048299667080356858 0.03399517954540248 0.10824711152109721 0.10615388581870201 0.039241171488185886
leaf_weight=1000.4337733462453 272.93422949314117 121.47641476988792 855.5327373854816 87.549093961715698 320.93060331046581 77.494959127157927
leaf_count=3947 195 101 876 33 180 78
internal_value=0.037506 0.0201825 0.0132178 0.077833 0.0894738 0.0713914
internal_weight=2736.35 2064.99 1855.97 209.026 671.36 350.429
internal_count=5410 4957 4823 134 453 273
is_linear=0
shrinkage=0.115165


Tree=29
num_leaves=6
num_cat=0
split_feature=0 3 0 0 1
split_gain=165.366 53.8802 41.2783 6.74975 0.325272
threshold=226650.00000000003 3085.0000000000005 11100.000000000002 535250.00000000012 42186.000000000007
decision_type=2 2 2 2 2
left_child=1 2 -1 4 -2
right_child=3 -3 -4 -5 -6
leaf_value=-0.0065286665153109847 0.07438824477206217 0.1017705980736163 0.027379556949807846 0.10434830395239994 0.036309874804932564
leaf_weight=767.49733324348927 254.29350849613547 93.098658602684736 1170.4388251751661 290.78524839878082 74.781241852790117
leaf_count=3496 195 43 1418 180 78
internal_value=0.034584 0.0182977 0.0137506 0.086541 0.0678628
internal_weight=2650.89 2031.03 1937.94 619.86 329.075
internal_count=5410 4957 4914 453 273
is_linear=0
shrinkage=0.115165


Tree=30
num_leaves=7
num_cat=0
split_feature=0 2 2 0 0 1
split_gain=149.938 49.6696 36.914 23.9824 7.36125 3.14151
threshold=226650.00000000003 36465.000000000007 19180.000000000004 29100.000000000004 515500.00000000006 43254.000000000007
decision_type=2 2 2 2 2 2
left_child=1 2 -1 -3 5 -2
right_child=4 3 -4 -5 -6 -7
leaf_value=0.011087799477882666 0.070097731719784076 0.022744384053661582 -0.044626530530865738 0.07046984081001513 0.10161081713500839 0.018989535402652934
leaf_weight=1164.1009051576257 247.63309032469988 409.75487747788429 174.77132099121809 254.27480521053076 276.37972962111235 49.625372689217329
leaf_count=3684 205 546 554 173 190 58
internal_value=0.0317585 0.0165003 0.00332004 0.0421518 0.0835353 0.0635565
internal_weight=2576.54 2002.9 1338.87 664.03 573.638 297.258
internal_count=5410 4957 4238 719 453 263
is_linear=0
shrinkage=0.115165


Tree=31
num_leaves=7
num_cat=0
split_feature=0 3 2 2 0 1
split_gain=135.551 51.9457 86.576 62.9003 19.0691 1.59454
threshold=157000.00000000003 45.000000000000007 8405.0000000000018 445.00000000000006 515500.00000000006 47526.000000000007
decision_type=2 2 2 2 2 2
left_child=1 2 -1 -3 5 -2
right_child=4 3 -4 -5 -6 -7
leaf_value=-0.0033581856326022233 0.056026161729281751 0.23860624004837316 -0.18050197727427056 0.021487827367373456 0.099582436893851128 0.003224350144076636
leaf_weight=534.99244727194309 437.79946570843458 12.250370591878889 33.547346368432045 1219.6438905410469 251.16294161975384 26.411107178777456
leaf_count=2028 405 32 266 2456 190 33
internal_value=0.0290394 0.0118027 -0.0164148 0.0251916 0.0713426 0.0540231
internal_weight=2515.81 1800.43 568.54 1231.89 715.374 464.211
internal_count=5410 4782 2294 2488 628 438
is_linear=0
shrinkage=0.115165


Tree=32
num_leaves=5
num_cat=0
split_feature=0 3 0 0
split_gain=123.118 48.9473 33.4556 7.75417
threshold=229300.00000000003 3085.0000000000005 66500.000000000015 570000.00000000012
decision_type=2 2 2 2
left_child=1 2 -1 -2
right_child=3 -3 -4 -5
leaf_value=-0.0019401201250426878 0.058680247396845839 0.098283355205302111 0.029778519985431705 0.099621063970002574
leaf_weight=1227.2167822867632 285.43907918781042 80.555100355297327 662.70070195198059 206.53177647292614
leaf_count=4224 280 43 695 168
internal_value=0.0264268 0.0131835 0.00901585 0.0777705
internal_weight=2462.44 1970.47 1889.92 491.971
internal_count=5410 4962 4919 448
is_linear=0
shrinkage=0.115165


Tree=33
num_leaves=7
num_cat=0
split_feature=0 2 0 2 0 1
split_gain=109.343 43.3265 33.682 7.00259 5.51822 0.429651
threshold=255450.00000000003 153900.00000000003 66500.000000000015 360095.00000000006 570000.00000000012 42186.000000000007
decision_type=2 2 2 2 2 2
left_child=1 2 -1 -3 5 -2
right_child=4 3 -4 -5 -6 -7
leaf_value=-0.0048870342523254515 0.06593951073359168 0.038655171745639649 0.027244829832035487 0.10207872232758355 0.097568998178780245 0.029213938845335657
leaf_weight=1139.9434623196721 156.36219268664718 110.76021971181035 674.5951602421701 62.701111793518066 187.83736288547516 74.418534632772207
leaf_count=4141 145 103 730 33 168 90
internal_value=0.0241445 0.0125076 0.00687409 0.0667423 0.0773921 0.0570037
internal_weight=2406.62 1988 1814.54 173.461 418.618 230.781
internal_count=5410 5007 4871 136 403 235
is_linear=0
shrinkage=0.115165


Tree=34
num_leaves=7
num_cat=0
split_feature=0 2 2 2 0 1
split_gain=97.0157 42.7128 49.3035 30.6443 5.79137 2.04975
threshold=255450.00000000003 2375.0000000000005 835.00000000000011 360095.00000000006 535250.00000000012 42186.000000000007
decision_type=2 2 2 2 2 2
left_child=1 2 -1 -3 5 -2
right_child=4 3 -4 -5 -6 -7
leaf_value=0 0.062444873621246566 0.016396818601494407 -0.099176644552569526 0.10018580621691284 0.094233292643352395 0.019386586745832136
leaf_weight=327.47399053350091 147.02139481902122 1500.8402659222484 79.05860697850585 56.986915230751038 181.70883363485336 61.814202554523945
leaf_count=1056 145 3433 485 33 180 78
internal_value=0.0221089 0.0113174 -0.0211873 0.0201269 0.0742643 0.0526435
internal_weight=2354.9 1964.36 406.533 1557.83 390.544 208.836
internal_count=5410 5007 1541 3466 403 223
is_linear=0
shrinkage=0.115165


Tree=35
num_leaves=6
num_cat=0
split_feature=0 3 2 0 1
split_gain=86.4385 35.6431 30.3898 8.39841 3.1905
threshold=226650.00000000003 3085.0000000000005 125.00000000000001 515500.00000000006 43254.000000000007
decision_type=2 2 2 2 2
left_child=1 2 -1 4 -2
right_child=3 -3 -4 -5 -6
leaf_value=-0.033268574128282401 0.053919513337075849 0.091518316160701316 0.011741994967688973 0.090737035121444862 0.0049289842148152506
leaf_weight=216.96910778433084 189.11412356048822 62.177512407302856 1628.5944413840771 175.46653410792351 43.11595494300127
leaf_count=582 205 43 4332 190 58
internal_value=0.0200701 0.00942181 0.00612257 0.067957 0.0470033
internal_weight=2315.44 1907.74 1845.56 407.697 232.23
internal_count=5410 4957 4914 453 263
is_linear=0
shrinkage=0.115165


Tree=36
num_leaves=8
num_cat=0
split_feature=0 2 2 0 0 1 2
split_gain=76.6354 44.2741 70.1369 34.1204 19.5708 2.94072 1.12954
threshold=130500.00000000001 125.00000000000001 445.00000000000006 52150.000000000007 494500.00000000006 42186.000000000007 3865.0000000000005
decision_type=2 2 2 2 2 2 2
left_child=1 3 -3 -1 5 -2 -6
right_child=4 2 -4 -5 6 -7 -8
leaf_value=-0.10848599406016811 0.039960300306217368 0.1389251697819556 0.0058367094970385586 0 0.0033620194969562192 0 0.090665147449541073
leaf_weight=69.481588453054428 434.21037389338017 48.870483823120594 1428.9669128209352 89.422143392264843 13.085231663659213 41.963198009878397 158.03087112680078
leaf_count=392 476 236 3920 126 22 60 178
internal_value=0.0181992 0.00457826 0.0110965 -0.0515496 0.0516062 0.0371091 0.0867787
internal_weight=2284.03 1636.74 1477.84 158.904 647.29 476.174 171.116
internal_count=5410 4674 4156 518 736 536 200
is_linear=0
shrinkage=0.115165


Tree=37
num_leaves=7
num_cat=0
split_feature=0 2 3 2 0 1
split_gain=68.7393 32.7935 85.5163 12.5054 5.90633 0.702296
threshold=255450.00000000003 71460.000000000015 695.00000000000011 360095.00000000006 570000.00000000012 50730.000000000007
decision_type=2 2 2 2 2 2
left_child=1 2 -1 -3 5 -2
right_child=4 3 -4 -5 -6 -7
leaf_value=0.0039577275223788757 0.048069306232956292 0.027951626313415859 -0.23551396599526092 0.0961957021924425 0.08865140578279819 0.00092993483797492295
leaf_weight=1587.1154488492757 168.65963091515005 281.72261716611683 13.751327747479079 47.180474519729614 132.22356474213302 24.254210231825709
leaf_count=4601 198 303 70 33 168 37
internal_value=0.0164626 0.00785899 0.000722257 0.0406443 0.0651105 0.044527
internal_weight=2254.91 1929.77 1600.87 328.903 325.137 192.914
internal_count=5410 5007 4671 336 403 235
is_linear=0
shrinkage=0.115165


Tree=38
num_leaves=7
num_cat=0
split_feature=0 2 3 0 0 2
split_gain=60.5644 31.3607 21.5734 15.1386 13.7545 0.631213
threshold=157000.00000000003 50580.000000000007 315.00000000000006 11100.000000000002 570000.00000000012 545.00000000000011
decision_type=2 2 2 2 2 2
left_child=1 2 -1 -3 5 -2
right_child=4 3 -4 -5 -6 -7
leaf_value=0.00043304244504708953 0.007500205427238337 0.013449920961617632 -0.046952561274097519 0.062107951889686937 0.086080239116237509 0.038798722717196352
leaf_weight=1160.561906311661 49.065137138590217 287.06024850159883 134.6731485016644 141.77118781581521 121.33251380827278 332.21882085688412
leaf_count=3922 66 366 388 106 168 394
internal_value=0.0149068 0.00431084 -0.00436423 0.0311914 0.0499036 0.036072
internal_weight=2226.68 1724.07 1295.24 428.831 502.616 381.284
internal_count=5410 4782 4310 472 628 460
is_linear=0
shrinkage=0.115165


Tree=39
num_leaves=6
num_cat=0
split_feature=0 2 0 0 1
split_gain=52.5327 28.3454 26.7102 5.49405 1.21043
threshold=255450.00000000003 360095.00000000006 11100.000000000002 570000.00000000012 42186.000000000007
decision_type=2 2 2 2 2
left_child=1 2 -1 4 -2
right_child=3 -3 -4 -5 -6
leaf_value=-0.012479197846511312 0.048087436549277406 0.093640114707787922 0.015338494455829842 0.083403568708340439 0.012185301237317085
leaf_weight=761.14588260278106 117.30458795465529 42.168066024780273 1103.1016274169087 111.59239618293941 61.985325524583459
leaf_count=3503 145 33 1471 168 90
internal_value=0.0135568 0.00626051 0.00374624 0.0587829 0.0388332
internal_weight=2197.3 1906.42 1864.25 290.882 179.29
internal_count=5410 5007 4974 403 235
is_linear=0
shrinkage=0.115165


Tree=40
num_leaves=8
num_cat=0
split_feature=0 2 2 0 0 1 2
split_gain=45.6833 44.381 107.395 60.4931 18.9096 14.1418 2.94303
threshold=86500.000000000015 6605.0000000000009 6685.0000000000009 19100.000000000004 494500.00000000006 9078.0000000000018 3865.0000000000005
decision_type=2 2 2 2 2 2 2
left_child=1 3 -3 -1 5 -2 -6
right_child=4 2 -4 -5 6 -7 -8
leaf_value=-0.07164115365703054 0.057740350908570555 0.31323652829641901 0.0089332435175517363 0.0082706717045486645 0 0.014750500488427026 0.081139740374294306
leaf_weight=222.63420291244984 141.47634663432837 9.541612043976782 894.19952498376369 257.61644732952118 10.173838099464772 514.62242501787841 116.60497134178877
leaf_count=1872 107 15 2167 368 22 681 178
internal_value=0.0123511 0 0.0147541 -0.0283322 0.0344657 0.0251309 0.076071
internal_weight=2166.87 1383.99 903.741 480.251 782.878 656.099 126.779
internal_count=5410 4422 2182 2240 988 788 200
is_linear=0
shrinkage=0.115165


Tree=41
num_leaves=6
num_cat=0
split_feature=0 2 2 1 1
split_gain=40.5339 25.3658 19.6318 5.64838 2.56502
threshold=255450.00000000003 360095.00000000006 125.00000000000001 96654.000000000015 76896.000000000015
decision_type=2 2 2 2 2
left_child=1 2 -1 4 -2
right_child=3 -3 -4 -5 -6
leaf_value=-0.029071898628059582 0.04222439708910776 0.091269418510284972 0.0072800186605713572 0.09294477943845289 0
leaf_weight=215.73849859461188 197.68758326023817 38.208981037139893 1614.1618956252933 52.842067789286375 14.779129229485987
leaf_count=590 283 33 4384 82 38
internal_value=0.0113333 0.00501586 0.00267448 0.0530844 0.0388188
internal_weight=2133.42 1868.11 1829.9 265.309 212.467
internal_count=5410 5007 4974 403 321
is_linear=0
shrinkage=0.115165


Tree=42
num_leaves=7
num_cat=0
split_feature=0 2 2 0 0 1
split_gain=36.7088 30.4436 64.3899 25.7349 11.6179 4.57325
threshold=130500.00000000001 125.00000000000001 445.00000000000006 52150.000000000007 570000.00000000012 14418.000000000002
decision_type=2 2 2 2 2 2
left_child=1 3 -3 -1 5 -2
right_child=4 2 -4 -5 -6 -7
leaf_value=-0.097463938433734659 0.049838567402922383 0.12799652849114018 0.00149755888964655 0 0.075680649156939145 0.017286209080769849
leaf_weight=65.559420116245747 101.40795684233308 49.63986686617136 1382.7882668785751 88.791950561106205 90.079613899812102 338.99786277487874
leaf_count=392 89 236 3920 126 168 479
internal_value=0.0102457 0.00115227 0.00671958 -0.0460723 0.0363103 0.0263424
internal_weight=2117.26 1586.78 1432.43 154.351 530.485 440.406
internal_count=5410 4674 4156 518 736 568
is_linear=0
shrinkage=0.115165


Tree=43
num_leaves=5
num_cat=0
split_feature=2 0 0 1
split_gain=31.9135 32.0314 186.777 24.0624
threshold=360095.00000000006 66500.000000000015 58500.000000000007 8010.0000000000009
decision_type=2 2 2 2
left_child=1 2 -1 -3
right_child=-2 3 -4 -5
leaf_value=0.0001409935665889641 0.096170089956435681 0.058078034761481788 -0.36949596324755002 0.011746202093824227
leaf_weight=1191.9814755581319 49.081252098083496 205.53431706130505 12.114064812660216 643.39080529939383
leaf_count=4153 51 158 78 970
internal_value=0.00924745 0.00667352 -0.00511338 0.0238119
internal_weight=2102.1 2053.02 1204.1 848.925
internal_count=5410 5359 4231 1128
is_linear=0
shrinkage=0.115165


Tree=44
num_leaves=7
num_cat=0
split_feature=0 2 3 1 2 1
split_gain=30.1412 21.4032 15.9613 6.71938 4.04279 2.39603
threshold=226650.00000000003 153900.00000000003 1375.0000000000002 96654.000000000015 360095.00000000006 75294.000000000015
decision_type=2 2 2 2 2 2
left_child=1 2 -1 5 -3 -2
right_child=3 4 -4 -5 -6 -7
leaf_value=0.00012036305089340886 0.034150552130117473 0.025098014207591748 -0.11715450131362411 0.088495063856145986 0.086493591102800568 0
leaf_weight=1673.677426174283 216.67083212919533 95.275284171104431 9.2199972495436651 43.808584405109286 31.788461625576019 14.680303813889621
leaf_count=4792 330 101 31 82 33 41
internal_value=0.008281 0.0025657 -0.000698359 0.043447 0.0470387 0.0309914
internal_weight=2085.12 1809.96 1682.9 275.16 127.064 231.351
internal_count=5410 4957 4823 453 134 371
is_linear=0
shrinkage=0.115165


Tree=45
num_leaves=7
num_cat=0
split_feature=2 3 0 2 0 3
split_gain=27.3229 38.6805 53.2427 16.8135 16.7693 17.6537
threshold=71460.000000000015 705.00000000000011 213500.00000000003 2375.0000000000005 37100.000000000007 805.00000000000011
decision_type=2 2 2 2 2 2
left_child=1 3 -3 -1 5 -2
right_child=4 2 -4 -5 -6 -7
leaf_value=-0.015822315340563241 -0.072132226801919774 -0.26159222116042508 0.022850018343182878 0.010412799549030977 0.065095695742941148 0.025190317327600832
leaf_weight=419.66905025392771 20.789159521460533 11.133300319314005 10.798689519986509 1271.283272696659 152.21536378655583 184.89710884541273
leaf_count=1586 50 66 13 3296 181 218
internal_value=0.00750259 0.00114649 -0.132251 0.00361277 0.0361933 0.0114752
internal_weight=2070.79 1712.88 21.932 1690.95 357.902 205.686
internal_count=5410 4961 79 4882 449 268
is_linear=0
shrinkage=0.115165


Tree=46
num_leaves=5
num_cat=0
split_feature=2 0 2 2
split_gain=25.3629 26.1908 43.591 24.348
threshold=360095.00000000006 11100.000000000002 6605.0000000000009 2375.0000000000005
decision_type=2 2 2 2
left_child=1 2 -1 -3
right_child=-2 3 -4 -5
leaf_value=-0.058258055830751762 0.091604688994452635 -0.01268482265680944 0.003656641832132121 0.023773511653686987
leaf_weight=195.09834639728069 39.836682111024857 302.76664720848203 556.04902620241046 963.41250487044454
leaf_count=1777 51 527 1726 1329
internal_value=0.00663012 0.00446036 -0.0122031 0.0146967
internal_weight=2057.16 2017.33 751.147 1266.18
internal_count=5410 5359 3503 1856
is_linear=0
shrinkage=0.115165


Tree=47
num_leaves=5
num_cat=0
split_feature=0 2 0 2
split_gain=24.1103 19.3148 13.9053 3.03646
threshold=494500.00000000006 360095.00000000006 11100.000000000002 3865.0000000000005
decision_type=2 2 2 2
left_child=1 2 -1 -2
right_child=3 -3 -4 -5
leaf_value=-0.010943713105658451 0 0.085409910276005641 0.009092871040463954 0.067881398041959612
leaf_weight=742.69253776967525 8.6176811736077052 30.788047194480896 1165.3424160201102 84.079333464615047
leaf_count=3503 22 38 1669 178
internal_value=0.00596397 0.00289003 0.0010578 0.0616413
internal_weight=2031.52 1938.82 1908.03 92.697
internal_count=5410 5210 5172 200
is_linear=0
shrinkage=0.115165


Tree=48
num_leaves=5
num_cat=0
split_feature=0 2 0 2
split_gain=20.6343 17.0788 11.1459 0.725923
threshold=515500.00000000006 360095.00000000006 11100.000000000002 3865.0000000000005
decision_type=2 2 2 2
left_child=1 2 -1 -2
right_child=3 -3 -4 -5
leaf_value=-0.0097144243931031569 0 0.083071061043015981 0.0082262432158322386 0.064707596205459628
leaf_weight=741.2079541310668 8.5589443016797286 28.332958102226257 1164.9984228406101 72.162956479005516
leaf_count=3503 20 38 1679 170
internal_value=0.0054143 0.00270387 0.00101538 0.0605342
internal_weight=2015.26 1934.54 1906.21 80.7219
internal_count=5410 5220 5182 190
is_linear=0
shrinkage=0.115165


Tree=49
num_leaves=7
num_cat=0
split_feature=2 3 0 0 2 3
split_gain=18.9948 33.2135 41.5925 12.2429 16.2618 11.7359
threshold=71460.000000000015 705.00000000000011 213500.00000000003 37100.000000000007 78170.000000000015 565.00000000000011
decision_type=2 2 2 2 2 2
left_child=1 5 -3 4 -2 -1
right_child=3 2 -4 -5 -6 -7
leaf_value=-3.0619183499671769e-05 0.072955363566650874 -0.23332187044826275 0.017709683943633849 0.056771297589514325 -0.0053088072677159662 0.043052431804924261
leaf_weight=1565.8838452501222 36.212679952383041 11.749442555010321 9.9492701822891814 132.7023173943162 163.28226292878389 81.240125654265285
leaf_count=4786 21 66 13 181 247 96
internal_value=0.00492782 0 -0.124583 0.0298053 0.00858649 0.0019881
internal_weight=2001.02 1668.82 21.6987 332.197 199.495 1647.12
internal_count=5410 4961 79 449 268 4882
is_linear=0
shrinkage=0.115165


Tree=50
num_leaves=5
num_cat=0
split_feature=2 0 2 1
split_gain=18.0894 15.4611 9.29958 0.223955
threshold=360095.00000000006 570000.00000000012 185.00000000000003 96654.000000000015
decision_type=2 2 2 2
left_child=1 2 -1 -3
right_child=-2 3 -4 -5
leaf_value=-0.020095983935807433 0.084843958793713786 0.017454408079370549 0.0038093264350171734 0.076899685079062807
leaf_weight=240.44842275977135 30.483523726463318 31.148500449489802 1660.7518697679043 29.237463214434683
leaf_count=663 51 85 4540 71
internal_value=0.00438203 0.00264611 0.000503473 0.0572386
internal_weight=1992.07 1961.59 1901.2 60.386
internal_count=5410 5359 5203 156
is_linear=0
shrinkage=0.115165


Tree=51
num_leaves=5
num_cat=0
split_feature=2 0 1 1
split_gain=16.0616 14.8572 27.3392 6.6252
threshold=360095.00000000006 130500.00000000001 11214.000000000002 96654.000000000015
decision_type=2 2 2 2
left_child=1 2 -1 -3
right_child=-2 3 -4 -5
leaf_value=0.00010676170696637409 0.082521771617969183 0.015301897785936965 -0.077000363335977443 0.074345415553852282
leaf_weight=1454.9911828152835 28.053917735815048 420.04976572375745 56.923896089196205 27.103010249324143
leaf_count=4524 51 645 119 71
internal_value=0.00400842 0.00240496 -0.00281745 0.0208107
internal_weight=1987.12 1959.07 1511.92 447.153
internal_count=5410 5359 4643 716
is_linear=0
shrinkage=0.115165


Tree=52
num_leaves=5
num_cat=0
split_feature=2 0 1 1
split_gain=14.2569 13.5956 24.6612 10.347
threshold=360095.00000000006 86500.000000000015 10146.000000000002 9078.0000000000018
decision_type=2 2 2 2
left_child=1 2 -1 -3
right_child=-2 3 -4 -5
leaf_value=-0.0022183195835977169 0.080152013100113051 0.045782685111225283 -0.14626264945941569 0.0075750291177781133
leaf_weight=1297.3292798362672 25.873143672943115 123.42003840953112 9.8773092441260797 523.98845238378271
leaf_count=4354 51 107 37 861
internal_value=0.00366286 0.00217736 -0.00432772 0.0158885
internal_weight=1980.49 1954.62 1307.21 647.408
internal_count=5410 5359 4391 968
is_linear=0
shrinkage=0.115165


Tree=53
num_leaves=5
num_cat=0
split_feature=1 2 3 2
split_gain=13.3899 11.1342 29.9293 10.7358
threshold=96654.000000000015 71460.000000000015 705.00000000000011 78170.000000000015
decision_type=2 2 2 2
left_child=1 2 -1 -3
right_child=-2 3 -4 -5
leaf_value=0 0.075155216873298847 0.068766853684485291 -0.12161377739967144 0.0095171788139224011
leaf_weight=1617.3718866319396 27.823178191669285 50.275097064673901 20.926104169338942 255.45179431233555
leaf_count=4835 82 34 77 382
internal_value=0.00326551 0.00177712 -0.00177115 0.0218297
internal_weight=1971.85 1944.02 1638.3 305.727
internal_count=5410 5328 4912 416
is_linear=0
shrinkage=0.115165


Tree=54
num_leaves=5
num_cat=0
split_feature=2 0 2 2
split_gain=12.4545 11.5247 45.9725 15.6713
threshold=360095.00000000006 11100.000000000002 445.00000000000006 22875.000000000004
decision_type=2 2 2 2
left_child=1 2 -1 -3
right_child=-2 3 -4 -5
leaf_value=0.08220920224385278 0.077221146181506758 0 -0.018653757542418516 0.027989444122685954
leaf_weight=58.512844808399677 23.515531286597252 831.02975671365857 677.57039868831635 376.33938501589
leaf_count=467 51 1322 3036 534
internal_value=0.00297002 0.00160491 -0.00942822 0.00870122
internal_weight=1966.97 1943.45 736.083 1207.37
internal_count=5410 5359 3503 1856
is_linear=0
shrinkage=0.115165


Tree=55
num_leaves=7
num_cat=0
split_feature=3 2 1 2 3 3
split_gain=11.8767 34.8182 59.6935 17.0016 7.40176 11.688
threshold=955.00000000000011 81240.000000000015 6942.0000000000009 71460.000000000015 1045.0000000000002 1645.0000000000002
decision_type=2 2 2 2 2 2
left_child=1 3 -3 -1 -2 -6
right_child=4 2 -4 -5 5 -7
leaf_value=-0.00016342831230627006 0.068465746324693155 -0.26837921214929739 0.0072897252565494097 0.061658924608761878 -0.018617736531396659 0.036877856777854504
leaf_weight=1647.7858051480725 44.790702179074287 11.050266787409784 18.347128665074706 54.462463798001409 72.145523101557046 110.32701757457107
leaf_count=4947 32 59 30 45 130 167
internal_value=0.00271842 -0.000322823 -0.113152 0.00178046 0.0271283 0.0127578
internal_weight=1958.91 1731.65 29.3974 1702.25 227.263 182.473
internal_count=5410 5081 89 4992 329 297
is_linear=0
shrinkage=0.115165


Tree=56
num_leaves=7
num_cat=0
split_feature=0 2 3 3 1 1
split_gain=11.4077 9.31655 17.9452 2.45404 0.299939 3.4846
threshold=570000.00000000012 153900.00000000003 1375.0000000000002 1645.0000000000002 96654.000000000015 75294.000000000015
decision_type=2 2 2 2 2 2
left_child=1 2 -1 -3 5 -2
right_child=4 3 -4 -5 -6 -7
leaf_value=0 0.045251835089118023 0 -0.11822531865974917 0.039767955071004737 0.071440353929936848 -0.01147410318177932
leaf_weight=1774.4587053470314 18.223186041694138 22.08524964004755 10.969062804244457 91.074122110381722 25.010789741761982 11.394457225222139
leaf_count=5053 45 32 36 121 82 41
internal_value=0.00239482 0.000588538 -0.00125824 0.0318821 0.0515607 0.0131956
internal_weight=1953.22 1898.59 1785.43 113.159 54.6284 29.6176
internal_count=5410 5242 5089 153 168 86
is_linear=0
shrinkage=0.115165


Tree=57
num_leaves=8
num_cat=0
split_feature=2 2 2 0 0 2 3
split_gain=10.1673 115.761 89.3932 78.0361 52.8769 78.8809 20.7196
threshold=8295.0000000000018 10415.000000000002 14545.000000000002 24500.000000000004 31500.000000000004 445.00000000000006 185.00000000000003
decision_type=2 2 2 2 2 2 2
left_child=4 3 -3 -2 5 -1 -6
right_child=1 2 -4 -5 6 -7 -8
leaf_value=0.035083408000659247 0.1708276744926949 -0.10198005007264938 0.0077085815769428268 -0.0094056487105301321 0.0057210481481367696 -0.086509244306705951 0.083938480990919356
leaf_weight=96.961849674582481 84.596875414252281 103.55562723614275 930.07080953940749 41.404579307883978 444.05898104934022 201.59127871692181 46.425922807306051
leaf_count=567 199 410 1879 74 626 1634 21
internal_value=0.00212923 0.00914282 -0.00341331 0.110695 -0.00762614 -0.0456927 0.014959
internal_weight=1948.67 1159.63 1033.63 126.001 789.038 298.553 490.485
internal_count=5410 2562 2289 273 2848 2201 647
is_linear=0
shrinkage=0.115165


Tree=58
num_leaves=5
num_cat=0
split_feature=1 2 2 0
split_gain=10.1139 8.86595 104.441 44.8614
threshold=96654.000000000015 185.00000000000003 205.00000000000003 52150.000000000007
decision_type=2 2 2 2
left_child=1 3 -3 -1
right_child=-2 2 -4 -5
leaf_value=-0.093927018222003222 0.068898614109361475 0.29551966357785925 0.0008038120372900777 0.010188607418832365
leaf_weight=69.568663246929646 23.337243049405515 9.8792357593774778 1660.2740859840997 175.82643598131835
leaf_count=436 82 24 4636 232
internal_value=0.00192561 0.000663066 0.00390215 -0.0192141
internal_weight=1938.89 1915.55 1670.15 245.395
internal_count=5410 5328 4660 668
is_linear=0
shrinkage=0.115165


Tree=59
num_leaves=5
num_cat=0
split_feature=3 0 1 3
split_gain=9.7946 8.78877 22.0651 4.58585
threshold=3685.0000000000005 130500.00000000001 11214.000000000002 145.00000000000003
decision_type=2 2 2 2
left_child=1 2 -1 -3
right_child=-2 3 -4 -5
leaf_value=0 0.072027554576955602 0.025536931415485343 -0.068697296828934939 0
leaf_weight=1432.8891036957502 19.889238014817238 242.39022589940578 59.152526777237654 181.46732186665758
leaf_count=4528 46 346 119 371
internal_value=0.00184321 0.000657607 -0.00327432 0.015349
internal_weight=1935.79 1915.9 1492.04 423.858
internal_count=5410 5364 4647 717
is_linear=0
shrinkage=0.115165


Tree=60
num_leaves=5
num_cat=0
split_feature=2 0 2 2
split_gain=8.73753 8.06924 35.7952 12.8883
threshold=360095.00000000006 11100.000000000002 15700.000000000002 2375.0000000000005
decision_type=2 2 2 2
left_child=1 2 -1 -3
right_child=-2 3 -4 -5
leaf_value=0.017331325435031929 0.069531749149730232 -0.01321536231096257 -0.032963270878662153 0.01378946427101131
leaf_weight=343.9559688642621 18.68340377509594 297.74405679199845 385.08951494842768 886.39666247554123
leaf_count=2482 51 527 1021 1329
internal_value=0.00164888 0.000536245 -0.00870184 0.00660262
internal_weight=1931.87 1913.19 729.045 1184.14
internal_count=5410 5359 3503 1856
is_linear=0
shrinkage=0.115165


Tree=61
num_leaves=7
num_cat=0
split_feature=2 2 3 2 2 0
split_gain=10.0625 41.1153 55.9489 39.4042 13.722 12.611
threshold=36465.000000000007 19180.000000000004 185.00000000000003 15000.000000000002 39210.000000000007 29100.000000000004
decision_type=2 2 2 2 2 2
left_child=1 3 -3 -1 -2 -6
right_child=4 2 -4 -5 5 -7
leaf_value=-0.0033532586035007034 0.07327211304760356 0.0030771413341133648 -0.11554160593500895 0.060384264817910309 -0.0056368953684053759 0.029348780160979374
leaf_weight=1026.2926866738126 43.634636111557484 101.10752140916884 89.934637933038175 139.521419480443 316.31903833523393 214.83095265040174
leaf_count=3571 54 247 391 299 514 334
internal_value=0.00148757 -0.0036767 -0.0524691 0.004188 0.0143302 0.00788687
internal_weight=1931.64 1356.86 191.042 1165.81 574.785 531.15
internal_count=5410 4508 638 3870 902 848
is_linear=0
shrinkage=0.115165


Tree=62
num_leaves=7
num_cat=0
split_feature=3 2 1 2 3 3
split_gain=8.67678 29.6717 42.6858 14.7118 7.69177 7.78627
threshold=955.00000000000011 81240.000000000015 6942.0000000000009 71460.000000000015 1045.0000000000002 1645.0000000000002
decision_type=2 2 2 2 2 2
left_child=1 3 -3 -1 -2 -6
right_child=4 2 -4 -5 5 -7
leaf_value=-0.00099710692407014895 0.065020883860040457 -0.22624111858323126 0.0018317439008635071 0.057845121240125828 -0.016092072971102499 0.029743424542765254
leaf_weight=1629.0587383941747 42.441937897354364 12.513325408101084 17.262387298047543 51.865318646654487 72.936572405043989 101.19155688630417
leaf_count=4947 32 59 30 45 130 167
internal_value=0.00135269 -0.00118869 -0.104688 0.000770421 0.0228349 0.00825773
internal_weight=1927.27 1710.7 29.7757 1680.92 216.57 174.128
internal_count=5410 5081 89 4992 329 297
is_linear=0
shrinkage=0.115165


Tree=63
num_leaves=5
num_cat=0
split_feature=1 2 2 2
split_gain=8.46317 6.69808 88.6555 72.3673
threshold=96654.000000000015 10415.000000000002 8295.0000000000018 14545.000000000002
decision_type=2 2 2 2
left_child=1 2 -1 -3
right_child=-2 3 -4 -5
leaf_value=-0.0070584287852189969 0.064897387554137265 -0.094656693764262917 0.093616736658828414 0.0041181075963580777
leaf_weight=772.89204376935959 21.029722830746323 103.4698151582852 129.19650435820222 896.2369990083389
leaf_count=2835 82 404 271 1818
internal_value=0.00118319 4.15932e-05 0.00743065 -0.0062013
internal_weight=1922.83 1901.8 902.089 999.707
internal_count=5410 5328 3106 2222
is_linear=0
shrinkage=0.115165


Tree=64
num_leaves=4
num_cat=0
split_feature=1 3 2
split_gain=7.43559 6.54249 7.0273
threshold=96654.000000000015 3695.0000000000005 10415.000000000002
decision_type=2 2 2
left_child=1 2 -1
right_child=-2 -3 -4
leaf_value=0.0065928069508051131 0.062309662181011818 0.063009708059478517 -0.0073913810189483575
leaf_weight=902.36020079161972 19.720063844230026 15.485664576292036 984.71706497808918
leaf_count=3106 82 37 2185
internal_value=0.0010821 1.88528e-05 -0.000476607
internal_weight=1922.28 1902.56 1887.08
internal_count=5410 5328 5291
is_linear=0
shrinkage=0.115165


Tree=65
num_leaves=8
num_cat=0
split_feature=2 2 0 2 2 3 0
split_gain=7.29271 31.6664 45.0471 32.2196 11.9995 10.7344 0.123867
threshold=36465.000000000007 19180.000000000004 25025.000000000004 15000.000000000002 39210.000000000007 375.00000000000006 13500.000000000002
decision_type=2 2 2 2 2 2 2
left_child=1 3 -3 -1 6 -6 -2
right_child=4 2 -4 -5 5 -7 -8
leaf_value=-0.0031330691891930692 0.09047831173824171 -0.12443976545451511 -0.0039643884896355501 0.054787684270138942 -0.035081851268411304 0.012907498615110185 0.016424003217630493
leaf_weight=1028.1569584999233 20.362129479646683 59.27406582608819 133.64802184142172 137.77536400966346 62.005956393666565 458.92873175488785 22.269645715132356
leaf_count=3571 29 406 232 299 132 716 25
internal_value=0.00103472 -0.00329008 -0.0458968 0.00359891 0.0121422 0.00602721 0.0676869
internal_weight=1922.42 1358.85 192.922 1165.93 563.566 520.935 42.6318
internal_count=5410 4508 638 3870 902 848 54
is_linear=0
shrinkage=0.115165


Tree=66
num_leaves=6
num_cat=0
split_feature=0 2 2 0 2
split_gain=6.64571 6.3324 78.858 35.6892 0.353943
threshold=570000.00000000012 185.00000000000003 205.00000000000003 52150.000000000007 161110.00000000003
decision_type=2 2 2 2 2
left_child=1 3 -3 -1 -2
right_child=4 2 -4 -5 -6
leaf_value=-0.084931827585610326 0.0447882459196546 0.24041217101468268 -7.661495667629196e-05 0.0087155939834078523 0
leaf_weight=67.8700195774436 40.765944248531014 11.988837651908396 1615.6384790195152 172.80281587131321 5.5371296200901261
leaf_count=436 136 24 4555 227 32
internal_value=0.000884344 -2.13811e-05 0.00234504 -0.0174279 0.0412962
internal_weight=1914.6 1868.3 1627.63 240.673 46.3031
internal_count=5410 5242 4579 663 168
is_linear=0
shrinkage=0.115165


Tree=67
num_leaves=5
num_cat=0
split_feature=3 0 2 2
split_gain=6.43825 5.58072 37.1357 8.94235
threshold=3685.0000000000005 11100.000000000002 6605.0000000000009 22875.000000000004
decision_type=2 2 2 2
left_child=1 2 -1 -3
right_child=-2 3 -4 -5
leaf_value=-0.052351163490028635 0.063069273428555159 -0.00106649211753322 0.0066029924092734912 0.020377110141013795
leaf_weight=180.6351240798831 15.554739460349081 816.80775051005185 549.16827157139778 349.63429977046326
leaf_count=1777 46 1322 1730 535
internal_value=0.000851656 0 -0.00772327 0.00506725
internal_weight=1911.8 1896.25 729.803 1166.44
internal_count=5410 5364 3507 1857
is_linear=0
shrinkage=0.115165


Tree=68
num_leaves=8
num_cat=0
split_feature=2 2 3 2 3 2 0
split_gain=5.91312 72.9217 58.9939 55.0113 30.7906 24.4121 20.2129
threshold=10415.000000000002 9630.0000000000018 95.000000000000014 12590.000000000002 275.00000000000006 15700.000000000002 17500.000000000004
decision_type=2 2 2 2 2 2 2
left_child=1 6 -3 4 -2 -5 -1
right_child=3 2 -4 5 -6 -7 -8
leaf_value=-0.027942913212970391 -0.16451881867444276 -0.05399826088576317 0.18384604758442138 0.049456020414134605 0.006731570115644488 -0.0055102557381361177 0.010467596987900766
leaf_weight=254.76942521333694 36.661218517459929 12.252368099987505 45.482826603576541 116.07986586354673 13.081949561834334 835.1893264898099 585.14418861363083
leaf_count=2183 209 57 41 272 26 1782 840
internal_value=0.000766684 0.00771981 0.126277 -0.00504886 -0.116052 0.00102553 -0.000793481
internal_weight=1898.66 897.649 57.7352 1001.01 49.7432 951.269 839.914
internal_count=5410 3121 98 2289 235 2054 3023
is_linear=0
shrinkage=0.115165


Tree=69
num_leaves=5
num_cat=0
split_feature=1 2 2 2
split_gain=5.88741 5.90612 58.5504 49.8425
threshold=96654.000000000015 10415.000000000002 8295.0000000000018 14785.000000000002
decision_type=2 2 2 2
left_child=1 2 -1 -3
right_child=-2 3 -4 -5
leaf_value=-0.0051281044951044571 0.057508070389517107 -0.076733342863809714 0.076969552009079026 0.0027716958673724488
leaf_weight=757.5094744944945 17.591870216652751 111.29674352798611 128.24945903103799 877.01008155755699
leaf_count=2835 82 423 271 1799
internal_value=0.00065117 0 0.0067315 -0.0061741
internal_weight=1891.66 1874.07 885.759 988.307
internal_count=5410 5328 3106 2222
is_linear=0
shrinkage=0.115165


Tree=70
num_leaves=5
num_cat=0
split_feature=2 2 2 2
split_gain=5.79024 6.03588 108.518 26.1129
threshold=360095.00000000006 15700.000000000002 15000.000000000002 36465.000000000007
decision_type=2 2 2 2
left_child=1 2 -1 -3
right_child=-2 3 -4 -5
leaf_value=-0.0019710720247236723 0.060730394338870057 -0.035745334697170499 0.17343878920990319 0.0067499331114537747
leaf_weight=1013.4555167159997 14.749239981174467 281.17411816027015 42.59094587340951 539.85019474010915
leaf_count=3571 51 880 57 851
internal_value=0.000606307 0 0.00567737 -0.00744159
internal_weight=1891.82 1877.07 1056.05 821.024
internal_count=5410 5359 3628 1731
is_linear=0
shrinkage=0.115165


Tree=71
num_leaves=8
num_cat=0
split_feature=0 1 3 2 1 0 3
split_gain=5.40744 19.299 20.969 9.76479 5.55168 11.3439 8.94886
threshold=130500.00000000001 11214.000000000002 295.00000000000006 185.00000000000003 14418.000000000002 187500.00000000003 85.000000000000014
decision_type=2 2 2 2 2 2 2
left_child=1 3 -3 -1 6 -6 -2
right_child=4 2 -4 -5 5 -7 -8
leaf_value=-0.026590203800225101 -0.002137341511035144 -0.11556978625134645 0.0016831899266145332 0.0037848679578592506 -0.031623452051207555 0.016805406588987101 0.062455028984618174
leaf_weight=151.11520928144455 28.704488325864077 34.355016283690929 26.313245199620724 1269.064012883231 76.818040695041418 248.06030328758061 58.240123061463237
leaf_count=546 43 89 30 4009 133 514 46
internal_value=0.000616912 -0.00239732 -0.0628613 0.000147424 0.0123623 0.0036684 0.0377848
internal_weight=1892.67 1480.85 60.6683 1420.18 411.823 324.878 86.9446
internal_count=5410 4674 119 4555 736 647 89
is_linear=0
shrinkage=0.115165


Tree=72
num_leaves=7
num_cat=0
split_feature=2 3 2 2 0 2
split_gain=5.09225 54.0969 37.9737 74.21 50.559 17.7875
threshold=10415.000000000002 305.00000000000006 14785.000000000002 15700.000000000002 66500.000000000015 8295.0000000000018
decision_type=2 2 2 2 2 2
left_child=1 5 4 -4 -2 -1
right_child=2 -3 3 -5 -6 -7
leaf_value=-0.0051097815132811648 -0.1495295645744267 0.15024576440123408 0.12898350569944964 -0.0053488573617159153 0 0.04250923897420452
leaf_weight=751.32531786011532 46.987096972763538 27.442368421703577 51.911734148859978 831.44863471295685 67.545222329907119 113.75054223183542
leaf_count=2835 327 19 78 1782 102 267
internal_value=0.000505846 0.00700337 -0.00488283 0.00291215 -0.0656138 0.000916505
internal_weight=1890.41 892.518 997.893 883.36 114.532 865.076
internal_count=5410 3121 2289 1860 429 3102
is_linear=0
shrinkage=0.115165


Tree=73
num_leaves=5
num_cat=0
split_feature=3 2 3 2
split_gain=5.14259 5.46666 45.3563 31.8984
threshold=3685.0000000000005 10415.000000000002 305.00000000000006 12590.000000000002
decision_type=2 2 2 2
left_child=1 2 -1 -3
right_child=-2 3 -4 -5
leaf_value=0.00078670840538860138 0.058449731552866528 -0.091736512499679679 0.13872647964295504 -0.00058325122037691866
leaf_weight=865.28424889780581 13.828166842460631 48.272206324152648 26.854734729975462 934.78219175711274
leaf_count=3102 46 235 19 2008
internal_value=0.000476157 0 0.00635773 -0.00604822
internal_weight=1889.02 1875.19 892.139 983.054
internal_count=5410 5364 3121 2243
is_linear=0
shrinkage=0.115165


Tree=74
num_leaves=5
num_cat=0
split_feature=1 3 3 3
split_gain=5.06357 4.54334 33.1878 17.6985
threshold=96654.000000000015 115.00000000000001 95.000000000000014 285.00000000000006
decision_type=2 2 2 2
left_child=1 2 -1 -3
right_child=-2 3 -4 -5
leaf_value=-0.0032733828404110672 0.054552105983816032 -0.028150269034525163 0.055759713714187795 0.0048997042983783216
leaf_weight=805.70057577965781 16.444031203631312 312.18871218245476 141.44678928889334 612.75960184633732
leaf_count=3008 82 882 308 1130
internal_value=0.00046736 0 0.00539788 -0.00590575
internal_weight=1888.54 1872.1 947.147 924.948
internal_count=5410 5328 3316 2012
is_linear=0
shrinkage=0.115165


Tree=75
num_leaves=7
num_cat=0
split_feature=0 2 2 2 0 1
split_gain=5.41036 37.1624 104.861 71.6395 9.54915 17.4046
threshold=11100.000000000002 445.00000000000006 6605.0000000000009 185.00000000000003 14500.000000000002 2670.0000000000005
decision_type=2 2 2 2 2 2
left_child=1 3 -3 -1 -2 -6
right_child=4 2 -4 -5 5 -7
leaf_value=-0.077890126551731512 0.058894091495027417 -0.11629657286860048 0.0041622246831618075 0.1571079287141984 -0.062313319046756674 0.0064592399853716804
leaf_weight=19.596399925649166 37.503892138600349 108.04745294898748 556.40959647670388 40.639219805598259 44.207675457000732 1080.8291819966398
leaf_count=294 66 1310 1753 173 141 1673
internal_value=0.000452606 -0.0070667 -0.0156845 0.074025 0.00552223 0.00304508
internal_weight=1887.23 724.693 664.457 60.2356 1162.54 1125.04
internal_count=5410 3530 3063 467 1880 1814
is_linear=0
shrinkage=0.115165


Tree=76
num_leaves=5
num_cat=0
split_feature=2 2 2 0
split_gain=4.5126 6.06803 70.0183 25.428
threshold=360095.00000000006 15700.000000000002 15000.000000000002 11100.000000000002
decision_type=2 2 2 2
left_child=1 2 -1 -3
right_child=-2 3 -4 -5
leaf_value=-0.0006270188083309791 0.05579002235729278 -0.02970247136828914 0.1391567430197681 0.010397688727140746
leaf_weight=1002.883393120952 13.03448501229286 375.90498455986381 43.346140883862972 439.3854705914855
leaf_count=3571 51 1021 57 710
internal_value=0.000334707 -8.07403e-06 0.00554742 -0.00765094
internal_weight=1874.55 1861.52 1046.23 815.29
internal_count=5410 5359 3628 1731
is_linear=0
shrinkage=0.115165


Tree=77
num_leaves=7
num_cat=0
split_feature=3 2 0 2 3 3
split_gain=4.50892 26.7603 31.3759 11.787 8.17086 6.52407
threshold=955.00000000000011 81240.000000000015 52150.000000000007 71460.000000000015 1045.0000000000002 1155.0000000000002
decision_type=2 2 2 2 2 2
left_child=1 3 -3 -1 -2 -6
right_child=4 2 -4 -5 5 -7
leaf_value=-0.0010521541044601714 0.060003345396686218 -0.19826909376854804 0 0.052910011581708438 -0.062614814549445869 0.01116113863527823
leaf_weight=1591.8140151491389 39.497053666040301 13.424445435404779 16.058292489498854 49.092963214032352 10.859643882140515 153.01318066194654
leaf_count=4947 32 59 30 45 35 262
internal_value=0.000367431 -0.00138883 -0.100042 0.000495068 0.0164637 0.00160852
internal_weight=1873.76 1670.39 29.4827 1640.91 203.37 163.873
internal_count=5410 5081 89 4992 329 297
is_linear=0
shrinkage=0.115165


Tree=78
num_leaves=7
num_cat=0
split_feature=2 3 2 2 1 3
split_gain=4.81958 38.4779 26.0177 41.9181 40.2188 16.3207
threshold=10415.000000000002 255.00000000000003 14545.000000000002 15700.000000000002 5874.0000000000009 115.00000000000001
decision_type=2 2 2 2 2 2
left_child=1 5 4 -4 -2 -1
right_child=2 -3 3 -5 -6 -7
leaf_value=0.0060284580890243083 -0.14086533227122872 0.10696799325699748 0.091075435739936567 -0.0052871673781691468 0 -0.048501869780137832
leaf_weight=767.02386303804815 39.195067025721073 41.763843356631696 58.114203087985516 823.6578397010453 66.86713551171124 73.866510185413063
leaf_count=2819 308 44 97 1782 102 258
internal_value=0.000277828 0.00665144 -0.00498866 0.00117475 -0.0572839 0.000405335
internal_weight=1870.49 882.654 987.834 881.772 106.062 840.89
internal_count=5410 3121 2289 1879 410 3077
is_linear=0
shrinkage=0.115165


Tree=79
num_leaves=5
num_cat=0
split_feature=1 2 2 2
split_gain=4.30228 4.89219 34.0129 23.4054
threshold=96654.000000000015 10415.000000000002 9630.0000000000018 15000.000000000002
decision_type=2 2 2 2
left_child=1 2 -1 -3
right_child=-2 3 -4 -5
leaf_value=-2.5871565838248422e-05 0.051415549810150514 -0.053185587269583542 0.085857214191550971 0.00023777737697987513
leaf_weight=819.40075649786741 15.340917219407855 115.81498439237475 59.002186977304518 858.9744377983734
leaf_count=3009 82 444 97 1778
internal_value=0.000216435 -0.00014682 0.00582152 -0.00596814
internal_weight=1868.53 1853.19 878.403 974.789
internal_count=5410 5328 3106 2222
is_linear=0
shrinkage=0.115165


Tree=80
num_leaves=8
num_cat=0
split_feature=0 1 3 3 2 0 0
split_gain=4.05141 27.8673 93.6855 13.7217 12.1715 8.32262 2.86187
threshold=112100.00000000001 11214.000000000002 295.00000000000006 145.00000000000003 185.00000000000003 130500.00000000001 126500.00000000001
decision_type=2 2 2 2 2 2 2
left_child=1 4 -3 6 -1 -5 -2
right_child=3 2 -4 5 -6 -7 -8
leaf_value=-0.032036922690954601 0.054480878817500099 -0.31893693427127079 0.025676555616717348 -0.093219518110050095 0.0037280387491306628 -0.002981663817674255 0.016854513821462001
leaf_weight=134.15413983911276 48.739108212292194 9.4913846179842931 23.097157076001167 10.03373910859227 1239.3265830781311 171.23554819915444 233.33647491782904
leaf_count=534 34 60 20 30 3985 390 357
internal_value=0.000228785 -0.00261516 -0.0988032 0.00969864 0 -0.013226 0.025896
internal_weight=1869.41 1406.07 32.5885 463.345 1373.48 181.269 282.076
internal_count=5410 4599 80 811 4519 420 391
is_linear=0
shrinkage=0.115165


Tree=81
num_leaves=5
num_cat=0
split_feature=3 0 2 0
split_gain=3.98888 4.51879 29.4502 9.62736
threshold=3685.0000000000005 11100.000000000002 445.00000000000006 32300.000000000004
decision_type=2 2 2 2
left_child=1 2 -1 -3
right_child=-2 3 -4 -5
leaf_value=0.062725859428554617 0.053437662859176109 0.026158232200362827 -0.015653734078635514 -0.00057423866053099993
leaf_weight=62.888205863535404 12.232504189014433 206.77197670564055 647.36191071197391 936.93259983556345
leaf_count=467 46 357 3040 1500
internal_value=6.6832e-05 -0.000231809 -0.0076233 0.00399927
internal_weight=1866.19 1853.95 710.25 1143.7
internal_count=5410 5364 3507 1857
is_linear=0
shrinkage=0.115165


Tree=82
num_leaves=8
num_cat=0
split_feature=2 3 1 3 2 2 0
split_gain=4.55077 27.3875 44.7004 19.8687 11.3976 8.54396 0.382778
threshold=36465.000000000007 315.00000000000006 8010.0000000000009 305.00000000000006 39210.000000000007 50580.000000000007 13500.000000000002
decision_type=2 2 2 2 2 2 2
left_child=1 3 -3 -1 6 -6 -2
right_child=4 2 -4 -5 5 -7 -8
leaf_value=-0.001119379752035456 0.084860355432441081 -0.15792439080636003 0.0042597108720860682 0.10559423499183461 -0.02704986733885887 0.01075521148284409 0.01209373506277954
leaf_weight=1228.9232604531571 20.572133615612984 32.610593449324369 41.379411196801811 17.264772532507777 88.284550505690277 416.20894427178428 21.342222200706601
leaf_count=4190 29 236 63 19 199 649 25
internal_value=0.000104066 -0.00331895 -0.0685845 0.000534716 0.00909991 0.00304321 0.0631627
internal_weight=1866.59 1320.18 73.99 1246.19 546.408 504.493 41.9144
internal_count=5410 4508 299 4209 902 848 54
is_linear=0
shrinkage=0.115165


Tree=83
num_leaves=7
num_cat=0
split_feature=3 3 3 0 3 2
split_gain=3.73253 18.2701 48.4565 37.9404 7.71692 23.0333
threshold=565.00000000000011 315.00000000000006 295.00000000000006 56500.000000000007 625.00000000000011 71460.000000000015
decision_type=2 2 2 2 2 2
left_child=1 2 -1 -3 -2 -6
right_child=4 3 -4 -5 5 -7
leaf_value=-0.0021449951884362742 0.048159327592802559 -0.087839227426681835 0.099465953399823448 0.0086499900017144114 -0.069597805343875524 0.016863532484601363
leaf_weight=1265.0638957927004 56.035919545218349 89.065169528126717 58.947508070617914 106.33073902083561 42.181973229162395 245.09189328644425
leaf_count=4265 61 348 64 159 122 391
internal_value=0.000121428 -0.00210298 0.00250113 -0.0345515 0.0110631 0.00148248
internal_weight=1862.72 1519.41 1324.01 195.396 343.31 287.274
internal_count=5410 4836 4329 507 574 513
is_linear=0
shrinkage=0.115165


Tree=84
num_leaves=5
num_cat=0
split_feature=1 2 2 2
split_gain=3.6626 3.69664 50.8159 23.1416
threshold=96654.000000000015 15700.000000000002 15000.000000000002 16680.000000000004
decision_type=2 2 2 2
left_child=1 2 -1 -3
right_child=-2 3 -4 -5
leaf_value=-0.0011391305676871273 0.048473732446139846 -0.13093753644831538 0.11777025538953453 -0.0026011551307273738
leaf_weight=993.06680670939386 14.398742159828542 13.157394597306846 43.51020261272788 794.2016473878175
leaf_count=3550 82 73 57 1648
internal_value=0.0001266 -0.000180248 0.00411509 -0.00621521
internal_weight=1858.33 1843.94 1036.58 807.359
internal_count=5410 5328 3607 1721
is_linear=0
shrinkage=0.115165


Tree=85
num_leaves=7
num_cat=0
split_feature=2 2 3 2 2 3
split_gain=3.72748 21.5029 41.6413 8.6247 8.17394 8.03635
threshold=36465.000000000007 19180.000000000004 185.00000000000003 15000.000000000002 39210.000000000007 375.00000000000006
decision_type=2 2 2 2 2 2
left_child=1 3 -3 -1 -2 -6
right_child=4 2 -4 -5 5 -7
leaf_value=-0.00075034123784003973 0.054452361286255857 0.0083698649339294436 -0.095928550023455655 0.029150525799471975 -0.03272787959536784 0.0093149389049920518
leaf_weight=997.52051312616095 41.448173798620701 98.161606511101127 84.394868285860866 136.89900856651366 61.329510621726513 439.37954486301169
leaf_count=3571 54 247 391 299 132 716
internal_value=7.20463e-05 -0.00300066 -0.0391414 0.00261956 0.00827274 0.00297264
internal_weight=1859.13 1316.98 182.556 1134.42 542.157 500.709
internal_count=5410 4508 638 3870 902 848
is_linear=0
shrinkage=0.115165


Tree=86
num_leaves=8
num_cat=0
split_feature=0 0 3 1 0 1 2
split_gain=3.52371 34.8811 42.6554 26.9854 38.2963 14.2306 8.8181
threshold=48450.000000000007 41150.000000000007 1155.0000000000002 8010.0000000000009 86500.000000000015 5874.0000000000009 7745.0000000000009
decision_type=2 2 2 2 2 2 2
left_child=1 5 -3 6 -5 -1 -2
right_child=3 2 -4 4 -6 -7 -8
leaf_value=-0.003932279696063903 0.050022577512364587 -0.2254918063340057 0.035924870294451509 -0.094754589211287724 0.0010870179769898005 0.058635693081924276 0.0038434870800989314
leaf_weight=931.33227910473943 178.22164567932487 13.988171406090261 7.3488066196441642 54.619007345288992 517.31673379149288 44.440445818006992 110.5445834249258
leaf_count=3958 161 67 2 127 915 37 143
internal_value=6.35294e-05 -0.0043446 -0.132082 0.00566301 -0.00824574 -0.000287108 0.0342654
internal_weight=1857.81 997.11 21.337 860.702 571.936 975.773 288.766
internal_count=5410 4064 69 1346 1042 3995 304
is_linear=0
shrinkage=0.115165


Tree=87
num_leaves=7
num_cat=0
split_feature=2 3 3 0 2 2
split_gain=3.61667 14.8816 44.2833 39.7526 9.02298 9.47743
threshold=50580.000000000007 315.00000000000006 295.00000000000006 57040.000000000007 54845.000000000007 63390.000000000007
decision_type=2 2 2 2 2 2
left_child=1 2 -1 -3 -2 -6
right_child=4 3 -4 -5 5 -7
leaf_value=-0.0030619060720442912 0.049582741188027503 -0.10405211500590439 0.097106825849008899 0.0084494656032336937 -0.044582736386969309 0.0095820888957506983
leaf_weight=1235.0007850774564 58.20468722563237 60.604978054761887 55.030379531905055 92.228143780492246 42.608069580048323 310.23242864012718
leaf_count=4234 54 331 59 137 91 504
internal_value=4.09476e-05 -0.00244439 0.00132635 -0.0357868 0.00970592 0.00117504
internal_weight=1853.91 1442.86 1290.03 152.833 411.045 352.84
internal_count=5410 4761 4293 468 649 595
is_linear=0
shrinkage=0.115165


Tree=88
num_leaves=5
num_cat=0
split_feature=1 2 2 2
split_gain=3.30888 2.91152 26.9796 17.5681
threshold=96654.000000000015 10415.000000000002 8295.0000000000018 12590.000000000002
decision_type=2 2 2 2
left_child=1 2 -1 -3
right_child=-2 3 -4 -5
leaf_value=-0.0036512210214012216 0.04665645207749794 -0.06919313044453862 0.052265629731837765 -0.0005767776778994641
leaf_weight=744.33699235832319 13.85594273265451 46.996772571466863 127.07880189828575 916.59528725827113
leaf_count=2835 82 233 271 1989
internal_value=4.62713e-05 -0.000228561 0.00432572 -0.0047939
internal_weight=1848.86 1835.01 871.416 963.592
internal_count=5410 5328 3106 2222
is_linear=0
shrinkage=0.115165


Tree=89
num_leaves=7
num_cat=0
split_feature=0 0 2 0 2 0
split_gain=3.37258 28.7333 26.8585 7.70206 34.9153 21.9526
threshold=11100.000000000002 1.0000000180025095e-35 445.00000000000006 32300.000000000004 16680.000000000004 48450.000000000007
decision_type=2 2 2 2 2 2
left_child=1 2 -1 4 -2 -5
right_child=3 -3 -4 5 -6 -7
leaf_value=0.06806036021233984 -0.013174429524330622 -0.12139453572727778 -0.0086517645000901752 -0.05550900279092353 0.078759230826371915 0.0051809854572592053
leaf_weight=60.509789302945137 119.63815558701754 21.305328257381916 625.17529831640422 80.709136873483658 84.436965756118298 857.17629596078768
leaf_count=403 284 207 2920 177 73 1346
internal_value=8.23279e-07 -0.00597974 -0.000703197 0.00409202 0.0240222 0
internal_weight=1848.95 706.99 685.685 1141.96 204.075 937.885
internal_count=5410 3530 3323 1880 357 1523
is_linear=0
shrinkage=0.115165


Tree=90
num_leaves=7
num_cat=0
split_feature=2 2 0 2 2 3
split_gain=3.35661 18.3508 65.3832 40.4021 7.81218 6.20785
threshold=37670.000000000007 15700.000000000002 13500.000000000002 15000.000000000002 39210.000000000007 375.00000000000006
decision_type=2 2 2 2 2 2
left_child=1 3 -3 -1 -2 -6
right_child=4 2 -4 -5 5 -7
leaf_value=-0.00083206414041800782 0.059293021009852155 -0.12188075714156696 0.0015633138801917372 0.10522775106871354 -0.027792168423014314 0.0087910949989138294
leaf_weight=992.22822192078456 31.244607351720333 68.221672909334302 213.01874811761081 43.432356249541044 62.277902463451028 435.48976669786498
leaf_count=3571 36 549 349 57 132 716
internal_value=0 -0.00295122 -0.0288811 0.00380688 0.0078511 0.00306857
internal_weight=1845.91 1316.9 281.24 1035.66 529.012 497.768
internal_count=5410 4526 898 3628 884 848
is_linear=0
shrinkage=0.115165


Tree=91
num_leaves=5
num_cat=0
split_feature=2 3 3 1
split_gain=3.16599 4.40775 7.39891 4.52348
threshold=360095.00000000006 2005.0000000000002 1715.0000000000002 5874.0000000000009
decision_type=2 2 2 2
left_child=1 2 -1 -3
right_child=-2 3 -4 -5
leaf_value=-0.00064183097247677416 0.049075796528878217 -0.065718368537095451 0.047211986363612915 0
leaf_weight=1757.8771141185425 11.102980382740496 21.171421505510811 37.500105378217995 10.445918269455431
leaf_count=5255 51 48 30 26
internal_value=0 -0.000302538 0.000278561 -0.0392945
internal_weight=1838.1 1826.99 1795.38 31.6173
internal_count=5410 5359 5285 74
is_linear=0
shrinkage=0.115165


Tree=92
num_leaves=5
num_cat=0
split_feature=3 3 3 1
split_gain=2.93093 3.48796 6.24446 3.62005
threshold=3685.0000000000005 2005.0000000000002 1715.0000000000002 5874.0000000000009
decision_type=2 2 2 2
left_child=1 2 -1 -3
right_child=-2 3 -4 -5
leaf_value=-0.00056804555466272253 0.047786089531209254 -0.057351981262323951 0.044128772469348564 0
leaf_weight=1758.2612752695568 10.706267699599264 22.40557349100709 36.028422825504094 10.327868245542048
leaf_count=5255 46 52 30 27
internal_value=0 -0.000261571 0.000239896 -0.0344509
internal_weight=1837.73 1827.02 1794.29 32.7334
internal_count=5410 5364 5285 79
is_linear=0
shrinkage=0.115165


Tree=93
num_leaves=6
num_cat=0
split_feature=0 1 0 0 3
split_gain=2.86382 3.31585 17.711 12.7152 0.284435
threshold=570000.00000000012 9078.0000000000018 48450.000000000007 118500.00000000001 1455.0000000000002
decision_type=2 2 2 2 2
left_child=1 2 -1 -3 -2
right_child=4 3 -4 -5 -6
leaf_value=-0.0053934154426736941 0.032144307600986292 -0.041013309561674892 0.024631453649088419 0.00080333852857381982 0
leaf_weight=972.83855516836047 33.676448313053697 116.42947947978973 344.66310120560229 364.65856018103659 5.1205201200209549
leaf_count=4062 130 204 391 585 38
internal_value=0 -0.000520241 0.00221425 -0.00882745 0.0288464
internal_weight=1837.39 1798.59 1317.5 481.088 38.797
internal_count=5410 5242 4453 789 168
is_linear=0
shrinkage=0.115165


Tree=94
num_leaves=5
num_cat=0
split_feature=2 3 3 3
split_gain=2.62657 3.10248 22.855 11.7102
threshold=360095.00000000006 115.00000000000001 95.000000000000014 275.00000000000006
decision_type=2 2 2 2
left_child=1 2 -1 -3
right_child=-2 3 -4 -5
leaf_value=-0.0029415039917212405 0.04581877007676554 -0.024127445779716768 0.046646514735264766 0.0033328708212232434
leaf_weight=791.3109161388129 10.297423265874384 291.4073896612972 137.45149413123727 602.87366551253945
leaf_count=3028 51 853 310 1168
internal_value=0 -0.000198002 0.00419852 -0.00524115
internal_weight=1833.34 1823.04 928.762 894.281
internal_count=5410 5359 3338 2021
is_linear=0
shrinkage=0.115165


Tree=95
num_leaves=5
num_cat=0
split_feature=1 2 3 3
split_gain=2.59136 2.72666 25.927 14.2642
threshold=96654.000000000015 10415.000000000002 255.00000000000003 45.000000000000007
decision_type=2 2 2 2
left_child=1 2 -1 -3
right_child=-2 3 -4 -5
leaf_value=0 0.042511597331923799 -0.06894519669386448 0.087641944645297856 -0.0010845466594827044
leaf_weight=828.69791717687622 12.718978682998566 37.679917872883379 40.518621381372213 913.18274578545243
leaf_count=3062 82 215 44 2007
internal_value=1.47188e-05 -0.000190486 0.00420213 -0.00465846
internal_weight=1832.8 1820.08 869.217 950.863
internal_count=5410 5328 3106 2222
is_linear=0
shrinkage=0.115165


Tree=96
num_leaves=8
num_cat=0
split_feature=0 1 2 2 3 1 2
split_gain=2.70133 10.2505 17.6783 7.68284 5.09959 5.50202 2.80902
threshold=157000.00000000003 11214.000000000002 11795.000000000002 2375.0000000000005 145.00000000000003 16554.000000000004 12590.000000000002
decision_type=2 2 2 2 2 2 2
left_child=1 3 -3 -1 6 -6 -2
right_child=4 2 -4 -5 5 -7 -8
leaf_value=-0.015147742736363179 0.0069494008116000507 0 -0.089430166707082301 0.0054612109317070667 0.033290813829990787 -0.017783669710593659 0.043923170439258287
leaf_weight=297.31019880622625 116.05873562535271 78.163542469963431 40.584384206682444 1098.9261620361358 27.341563619673252 114.20965187763795 59.812583899125457
leaf_count=1435 198 104 98 3145 29 320 81
internal_value=0 -0.00180722 -0.033489 0.000716776 0.00976408 -0.00400358 0.0229734
internal_weight=1832.41 1514.98 118.748 1396.24 317.423 141.551 175.871
internal_count=5410 4782 202 4580 628 349 279
is_linear=0
shrinkage=0.115165


Tree=97
num_leaves=7
num_cat=0
split_feature=0 2 2 2 0 2
split_gain=2.63219 43.539 103.068 81.0101 13.5632 9.07711
threshold=19100.000000000004 6605.0000000000009 6685.0000000000009 445.00000000000006 20500.000000000004 22565.000000000004
decision_type=2 2 2 2 2 2
left_child=1 3 -3 -1 -2 -6
right_child=4 2 -4 -5 5 -7
leaf_value=0.032114240167109599 0.09001940035336535 0.29191405861116887 0.00073503709301114752 -0.11845606445135527 -0.0051542369532193658 0.017740982441348703
leaf_weight=73.603749874979258 17.65562142431736 10.425461277365683 577.12595190107822 102.96980461850762 727.86689541651867 322.06233320571482
leaf_count=517 15 14 1808 1355 1165 536
internal_value=0 -0.00490447 0.00965303 -0.0543789 0.00390557 0.00152337
internal_weight=1831.71 764.125 587.551 176.574 1067.58 1049.93
internal_count=5410 3694 1822 1872 1716 1701
is_linear=0
shrinkage=0.115165


Tree=98
num_leaves=8
num_cat=0
split_feature=3 3 2 2 3 1 3
split_gain=2.82683 17.9976 47.3038 34.3673 10.3603 31.9824 24.6895
threshold=115.00000000000001 95.000000000000014 9115.0000000000018 8405.0000000000018 275.00000000000006 1602.0000000000002 315.00000000000006
decision_type=2 2 2 2 2 2 2
left_child=1 3 -3 -1 5 -2 -6
right_child=4 2 -4 -5 6 -7 -8
leaf_value=0.0091626889456471999 -0.077420576493937937 -0.048602591612579779 0.088113502957109055 -0.052971979309789918 0.058469982203846332 0.0016292360205567072 -0.0052200557372649881
leaf_weight=650.91532963234931 88.563820511102676 41.294156285002828 93.372084815055132 137.09976142738014 87.867753659375012 203.20657519437373 521.37218053545803
leaf_count=2476 532 180 130 552 138 321 1081
internal_value=0.000116092 0.00480455 0.0428289 -0.00143614 -0.00420905 -0.0220387 0.00376528
internal_weight=1823.69 922.681 134.666 788.015 901.01 291.77 609.24
internal_count=5410 3338 310 3028 2072 853 1219
is_linear=0
shrinkage=0.115165


Tree=99
num_leaves=8
num_cat=0
split_feature=3 2 2 2 3 2 3
split_gain=2.55416 31.3428 78.9087 36.7975 24.5234 53.5573 26.4728
threshold=65.000000000000014 9115.0000000000018 6295.0000000000009 9760.0000000000018 45.000000000000007 475.00000000000006 1.0000000180025095e-35
decision_type=2 2 2 2 2 2 2
left_child=4 2 -2 -3 6 -6 -1
right_child=1 3 -4 -5 5 -7 -8
leaf_value=0.0049868261451794793 0 0.096212123355561383 -0.17865621600304515 -0.00059763866006986785 0.23843938762127229 0.0088875890992809251 -0.077894471324452694
leaf_weight=571.22983546974137 119.54883914929815 48.485892091877759 39.291562554426491 909.43569927103817 12.224443078041075 69.08004393056035 49.518163496628404
leaf_count=2151 417 45 229 2043 5 206 314
internal_value=7.17698e-05 -0.00310004 -0.0496757 0.0044475 0.00570984 0.0629176 -0.00164777
internal_weight=1818.81 1116.76 158.84 957.922 702.052 81.3045 620.748
internal_count=5410 2734 646 2088 2676 211 2465
is_linear=0
shrinkage=0.115165


end of trees

feature_importances:
InscClaimAmtReimbursed_out=188
InscClaimAmtReimbursed_in=164
DeductibleAmtPaid_out=103
DeductibleAmtPaid_in=59

parameters:
[boosting: gbdt]
[objective: binary]
[metric: auc]
[tree_learner: serial]
[device_type: cpu]
[data_sample_strategy: bagging]
[data: ]
[valid: ]
[num_iterations: 100]
[learning_rate: 0.115165]
[num_leaves: 63]
[num_threads: 4]
[seed: 42]
[deterministic: 0]
[force_col_wise: 0]
[force_row_wise: 0]
[histogram_pool_size: -1]
[max_depth: 3]
[min_data_in_leaf: 20]
[min_sum_hessian_in_leaf: 0.281857]
[bagging_fraction: 0.721222]
[pos_bagging_fraction: 1]
[neg_bagging_fraction: 1]
[bagging_freq: 0]
[bagging_seed: 400]
[bagging_by_query: 0]
[feature_fraction: 0.926104]
[feature_fraction_bynode: 1]
[feature_fraction_seed: 30056]
[extra_trees: 0]
[extra_seed: 12879]
[early_stopping_round: 0]
[early_stopping_min_delta: 0]
[first_metric_only: 0]
[max_delta_step: 0]
[lambda_l1: 3.75074]
[lambda_l2: 6.26209]
[linear_lambda: 0]
[min_gain_to_split: 0]
[drop_rate: 0.1]
[max_drop: 50]
[skip_drop: 0.5]
[xgboost_dart_mode: 0]
[uniform_drop: 0]
[drop_seed: 17869]
[top_rate: 0.2]
[other_rate: 0.1]
[min_data_per_group: 100]
[max_cat_threshold: 32]
[cat_l2: 10]
[cat_smooth: 10]
[max_cat_to_onehot: 4]
[top_k: 20]
[monotone_constraints: ]
[monotone_constraints_method: basic]
[monotone_penalty: 0]
[feature_contri: ]
[forcedsplits_filename: ]
[refit_decay_rate: 0.9]
[cegb_tradeoff: 1]
[cegb_penalty_split: 0]
[cegb_penalty_feature_lazy: ]
[cegb_penalty_feature_coupled: ]
[path_smooth: 0]
[interaction_constraints: ]
[verbosity: -1]
[saved_feature_importance_type: 0]
[use_quantized_grad: 0]
[num_grad_quant_bins: 4]
[quant_train_renew_leaf: 0]
[stochastic_rounding: 1]
[linear_tree: 0]
[max_bin: 255]
[max_bin_by_feature: ]
[min_data_in_bin: 3]
[bin_construct_sample_cnt: 200000]
[data_random_seed: 175]
[is_enable_sparse: 1]
[enable_bundle: 1]
[use_missing: 1]
[zero_as_missing: 0]
[feature_pre_filter: 1]
[pre_partition: 0]
[two_round: 0]
[header: 0]
[label_column: ]
[weight_column: ]
[group_column: ]
[ignore_column: ]
[categorical_feature: ]
[forcedbins_filename: ]
[precise_float_parser: 0]
[parser_config_file: ]
[objective_seed: 16083]
[num_class: 1]
[is_unbalance: 0]
[scale_pos_weight: 58.7153]
[sigmoid: 1]
[boost_from_average: 1]
[reg_sqrt: 0]
[alpha: 0.9]
[fair_c: 1]
[poisson_max_delta_step: 0.7]
[tweedie_variance_power: 1.5]
[lambdarank_truncation_level: 30]
[lambdarank_norm: 1]
[label_gain: ]
[lambdarank_position_bias_regularization: 0]
[eval_at: ]
[multi_error_top_k: 1]
[auc_mu_weights: ]
[num_machines: 1]
[local_listen_port: 12400]
[time_out: 120]
[machine_list_filename: ]
[machines: ]
[gpu_platform_id: -1]
[gpu_device_id: -1]
[gpu_use_dp: 0]
[num_gpu: 1]

end of parameters

pandas_categorical:[]
